<?xml version="1.0"?>
<opencv_storage>
<my_svm type_id="opencv-ml-svm">
  <svm_type>C_SVC</svm_type>
  <kernel><type>RBF</type>
    <gamma>3.5000000000000000e+00</gamma></kernel>
  <C>15.</C>
  <term_criteria><epsilon>2.2204460492503131e-16</epsilon>
    <iterations>10000</iterations></term_criteria>
  <var_all>1024</var_all>
  <var_count>1024</var_count>
  <class_count>2</class_count>
  <class_labels type_id="opencv-matrix">
    <rows>1</rows>
    <cols>2</cols>
    <dt>i</dt>
    <data>
      0 1</data></class_labels>
  <sv_total>248</sv_total>
  <support_vectors>
    <_>
      2.39026509e-02 1.82529334e-02 3.91134294e-03 8.25727917e-03
      4.34593670e-03 4.34593647e-04 6.08431082e-03 1.08648408e-02
      3.47674917e-03 1.73837459e-03 0. 0. 7.38809211e-03 3.04215541e-03
      1.56453717e-02 3.65058668e-02 9.12646670e-03 3.91134294e-03
      4.34593647e-04 1.30378094e-03 0. 4.34593647e-04 3.04215541e-03
      2.60756188e-03 9.99565423e-03 1.30378094e-03 4.34593647e-04
      8.69187294e-04 2.21642759e-02 2.17296835e-03 2.65102126e-02
      2.34680567e-02 4.34593670e-03 4.34593647e-04 0. 1.30378094e-03
      4.34593647e-04 4.34593647e-04 4.34593647e-04 2.17296835e-03
      4.34593647e-04 0. 0. 4.34593647e-04 4.34593647e-04 0.
      2.17296835e-03 1.73837459e-03 5.64971752e-03 1.73837459e-03
      4.34593647e-04 4.34593647e-04 1.73837459e-03 0. 1.30378094e-03
      4.34593647e-04 1.60799641e-02 4.34593647e-04 1.73837459e-03
      8.69187294e-04 2.34680567e-02 8.69187294e-04 2.47718375e-02
      1.21686216e-02 3.91134294e-03 1.73837459e-03 8.69187294e-04
      1.30378094e-03 4.34593647e-04 4.34593647e-04 4.34593647e-04
      1.30378094e-03 4.34593647e-04 0. 0. 0. 4.34593647e-04
      4.34593647e-04 8.69187294e-04 0. 1.30378094e-03 0. 0. 0. 0. 0. 0.
      0. 4.34593647e-04 0. 4.34593647e-04 0. 2.17296835e-03
      4.34593647e-04 0. 0. 4.34593670e-03 3.04215541e-03 0.
      1.73837459e-03 4.34593647e-04 4.34593647e-04 0. 1.73837459e-03
      4.34593647e-04 0. 0. 4.34593647e-04 8.69187294e-04 0.
      1.30378094e-03 1.30378094e-03 1.34724034e-02 4.34593647e-04 0.
      4.34593647e-04 8.69187294e-04 0. 4.34593647e-04 0. 3.65058668e-02
      4.34593647e-04 4.34593647e-04 1.30378094e-03 3.65058668e-02
      4.34593647e-04 1.39069967e-02 9.56106000e-03 2.60756188e-03
      1.26032159e-02 0. 7.82268587e-03 4.34593647e-04 0. 0.
      1.30378092e-02 0. 0. 0. 0. 4.34593647e-04 4.34593647e-04
      1.30378094e-03 1.91221200e-02 8.69187294e-04 8.69187294e-04 0.
      2.17296835e-03 0. 0. 0. 8.69187294e-04 4.34593647e-04
      4.34593647e-04 0. 8.69187294e-04 1.30378094e-03 0. 5.64971752e-03
      1.08648408e-02 8.69187294e-04 4.34593647e-04 0. 0. 0.
      4.34593647e-04 8.69187294e-04 8.69187294e-04 0. 0. 0. 0. 0. 0. 0.
      1.73837459e-03 0. 8.69187294e-04 0. 1.30378094e-03 0. 0. 0. 0. 0.
      0. 0. 4.34593647e-04 8.69187294e-04 1.30378094e-03 1.73837459e-03
      3.04215541e-03 7.38809211e-03 1.52107775e-02 0. 1.47761842e-02
      4.34593647e-04 4.34593647e-04 8.69187294e-04 1.47761842e-02
      4.34593647e-04 1.30378094e-03 0. 0. 4.34593647e-04 8.69187294e-04
      8.69187294e-04 1.30378092e-02 2.60756188e-03 0. 4.34593647e-04
      1.73837459e-03 0. 0. 0. 0. 0. 2.60756188e-03 0. 0. 1.30378094e-03
      0. 8.69187294e-04 6.51890459e-03 1.43415900e-02 5.34550175e-02
      1.30378094e-03 1.78183392e-02 8.69187294e-04 3.04215541e-03
      4.34593647e-04 1.08648408e-02 0. 2.60756188e-03 0. 4.34593647e-04
      0. 4.78053000e-03 1.30378094e-03 1.73837468e-02 3.04215550e-02
      2.60756183e-02 4.34593647e-04 7.82268587e-03 4.34593647e-04
      4.34593647e-04 1.73837459e-03 6.51890459e-03 2.08604950e-02
      6.95349835e-03 1.30378094e-03 3.04215541e-03 8.25727917e-03
      3.91134294e-03 1.17340283e-02 5.08474559e-02 3.17253359e-02
      1.39069967e-02 3.04215541e-03 1.52107775e-02 6.08431082e-03
      8.69187294e-04 1.17340283e-02 2.08604950e-02 2.17296835e-03
      1.30378094e-03 0. 4.34593647e-04 4.78053000e-03 3.04215541e-03
      1.12994350e-02 3.43328975e-02 1.12994350e-02 1.73837459e-03
      1.73837459e-03 4.34593647e-04 1.30378094e-03 4.34593647e-04
      8.69187294e-04 4.34593647e-04 3.91134294e-03 4.34593647e-04
      4.34593647e-04 4.34593647e-04 6.51890459e-03 1.73837459e-03
      2.82485876e-02 1.69491526e-02 8.69187294e-04 1.30378094e-03
      4.34593647e-04 4.34593647e-04 4.34593647e-04 0. 1.30378094e-03
      2.17296835e-03 0. 0. 0. 4.34593647e-04 4.34593647e-04 0.
      8.69187294e-04 3.47674917e-03 5.64971752e-03 1.73837459e-03 0.
      8.69187294e-04 0. 0. 0. 1.73837459e-03 2.17296835e-03
      4.34593647e-04 4.34593647e-04 8.69187294e-04 2.17296835e-03
      4.34593647e-04 8.69187340e-03 7.38809211e-03 7.38809211e-03
      1.30378094e-03 1.30378094e-03 1.73837459e-03 8.69187294e-04
      4.34593647e-04 3.04215541e-03 1.73837459e-03 4.34593647e-04 0. 0.
      0. 0. 4.34593647e-04 8.69187294e-04 8.69187294e-04 1.73837459e-03
      0. 4.34593647e-04 0. 0. 0. 4.34593647e-04 0. 8.69187294e-04 0. 0.
      0. 0. 4.34593647e-04 0. 0. 3.47674917e-03 1.30378094e-03 0.
      1.30378094e-03 4.34593647e-04 0. 1.73837459e-03 8.69187294e-04
      1.30378094e-03 8.69187294e-04 0. 0. 0. 8.69187294e-04
      1.30378094e-03 2.17296835e-03 6.51890459e-03 4.34593647e-04
      8.69187294e-04 4.34593647e-04 4.34593647e-04 4.34593647e-04
      1.30378094e-03 4.34593647e-04 2.17296835e-03 4.34593647e-04 0.
      4.34593647e-04 3.47674917e-03 4.34593647e-04 7.38809211e-03
      4.34593670e-03 4.78053000e-03 1.04302475e-02 4.34593647e-04
      2.86831800e-02 8.69187294e-04 8.69187294e-04 1.73837459e-03
      4.65015210e-02 4.34593647e-04 8.69187294e-04 0. 4.34593647e-04
      4.34593647e-04 8.69187294e-04 0. 2.65102126e-02 2.60756188e-03
      4.34593647e-04 4.34593647e-04 1.30378094e-03 0. 0. 0.
      2.17296835e-03 8.69187294e-04 1.30378094e-03 0. 1.30378094e-03
      1.30378094e-03 8.69187294e-04 1.30378094e-03 1.34724034e-02
      4.34593647e-04 1.73837459e-03 0. 8.69187294e-04 0. 4.34593647e-04
      4.34593647e-04 8.69187294e-04 4.34593647e-04 0. 0. 0. 0. 0. 0.
      8.69187294e-04 8.69187294e-04 0. 4.34593647e-04 2.17296835e-03
      4.34593647e-04 0. 0. 4.34593647e-04 4.34593647e-04 4.34593647e-04
      4.34593647e-04 1.73837459e-03 1.30378094e-03 4.34593647e-04
      4.34593647e-04 1.08648408e-02 6.95349835e-03 1.73837468e-02
      4.34593647e-04 3.17253359e-02 1.30378094e-03 8.69187294e-04 0.
      4.73707058e-02 1.30378094e-03 1.30378094e-03 4.34593647e-04
      1.73837459e-03 4.34593647e-04 2.17296835e-03 1.73837459e-03
      2.12950893e-02 1.30378094e-03 8.69187294e-04 4.34593647e-04
      2.17296835e-03 0. 0. 4.34593647e-04 2.17296835e-03 8.69187294e-04
      0. 0. 8.69187294e-04 8.69187294e-04 4.34593647e-04 3.47674917e-03
      8.25727917e-03 2.08604950e-02 3.86788361e-02 4.34593647e-04
      1.65145583e-02 1.30378094e-03 4.34593647e-04 2.17296835e-03
      1.43415900e-02 0. 1.73837459e-03 0. 2.17296835e-03 1.30378094e-03
      8.69187294e-04 1.73837459e-03 1.56453717e-02 3.86788361e-02
      2.65102126e-02 3.91134294e-03 1.34724034e-02 1.30378094e-03
      1.30378094e-03 1.73837459e-03 6.08431082e-03 7.82268587e-03
      8.25727917e-03 4.34593647e-04 7.38809211e-03 5.64971752e-03
      4.34593670e-03 1.17340283e-02 5.47587983e-02 2.91177742e-02
      1.34724034e-02 1.73837459e-03 8.69187340e-03 9.12646670e-03
      1.73837459e-03 6.95349835e-03 1.39069967e-02 3.47674917e-03
      1.30378094e-03 4.34593647e-04 4.34593647e-04 7.38809211e-03
      2.60756188e-03 1.78183392e-02 4.38939594e-02 1.39069967e-02
      1.73837459e-03 1.73837459e-03 2.60756188e-03 4.34593647e-04 0.
      2.17296835e-03 4.34593647e-04 9.99565423e-03 8.69187294e-04
      4.34593647e-04 0. 1.82529334e-02 4.34593647e-04 3.08561493e-02
      2.21642759e-02 3.47674917e-03 1.73837459e-03 0. 1.30378094e-03
      1.30378094e-03 0. 1.30378094e-03 1.30378094e-03 4.34593647e-04 0.
      0. 4.34593647e-04 4.34593647e-04 0. 4.34593647e-04 3.04215541e-03
      7.38809211e-03 8.69187294e-04 0. 8.69187294e-04 8.69187294e-04 0.
      0. 1.30378094e-03 8.69187340e-03 4.34593647e-04 1.73837459e-03 0.
      3.56366783e-02 0. 1.47761842e-02 1.43415900e-02 9.56106000e-03
      4.34593647e-04 0. 1.73837459e-03 0. 0. 0. 0. 4.34593647e-04 0. 0.
      0. 8.69187294e-04 0. 8.69187294e-04 4.34593647e-04 1.73837459e-03
      0. 0. 0. 0. 0. 0. 0. 8.69187294e-04 4.34593647e-04 0. 0.
      8.69187294e-04 4.34593647e-04 1.30378094e-03 4.34593647e-04
      8.69187340e-03 1.30378094e-03 8.69187294e-04 1.73837459e-03 0. 0.
      4.34593647e-04 0. 8.69187294e-04 0. 0. 8.69187294e-04
      1.73837459e-03 0. 4.34593647e-04 1.73837459e-03 1.47761842e-02
      1.30378094e-03 2.17296835e-03 1.30378094e-03 1.30378094e-03 0.
      4.34593647e-04 4.34593647e-04 2.04259008e-02 4.34593647e-04
      1.73837459e-03 4.34593647e-04 1.12994350e-02 8.69187294e-04
      1.04302475e-02 6.51890459e-03 2.60756188e-03 4.78053000e-03
      4.34593647e-04 1.21686216e-02 4.34593647e-04 0. 0. 1.69491526e-02
      4.34593647e-04 1.30378094e-03 0. 4.34593647e-04 0. 4.34593647e-04
      1.30378094e-03 2.25988701e-02 8.69187294e-04 4.34593647e-04 0.
      4.34593647e-04 0. 0. 4.34593647e-04 8.69187294e-04 4.34593647e-04
      1.73837459e-03 0. 0. 1.30378094e-03 4.34593647e-04 1.73837459e-03
      7.38809211e-03 0. 8.69187294e-04 0. 1.30378094e-03 0. 0. 0.
      8.69187294e-04 0. 0. 0. 0. 4.34593647e-04 0. 0. 4.34593647e-04
      1.30378094e-03 1.73837459e-03 4.34593647e-04 0. 0. 0. 0.
      4.34593647e-04 1.30378094e-03 1.30378094e-03 4.34593647e-04
      1.30378094e-03 2.17296835e-03 1.30378094e-03 4.34593647e-04
      7.82268587e-03 6.95349835e-03 2.65102126e-02 4.34593647e-04
      2.43372433e-02 4.34593647e-04 8.69187294e-04 0. 1.26032159e-02
      1.30378094e-03 4.34593647e-04 0. 2.17296835e-03 1.73837459e-03
      8.69187294e-04 3.04215541e-03 1.56453717e-02 8.69187294e-04
      1.73837459e-03 0. 1.30378094e-03 0. 0. 0. 8.69187294e-04
      4.34593647e-04 8.69187294e-04 0. 1.30378094e-03 4.34593647e-04 0.
      8.69187294e-04 5.21512376e-03 1.95567142e-02 5.43242060e-02 0.
      3.30291167e-02 1.30378094e-03 1.30378094e-03 1.30378094e-03
      1.30378092e-02 1.30378094e-03 8.69187294e-04 0. 4.34593647e-04
      1.73837459e-03 8.69187294e-04 2.60756188e-03 1.04302475e-02
      2.82485876e-02 2.34680567e-02 2.17296835e-03 9.12646670e-03
      8.69187294e-04 4.34593647e-04 1.73837459e-03 3.04215541e-03
      1.26032159e-02 7.82268587e-03 4.34593647e-04 6.95349835e-03
      9.12646670e-03 6.08431082e-03 9.99565423e-03 3.73750553e-02
      3.30291167e-02 9.56106000e-03 4.78053000e-03 9.56106000e-03
      1.04302475e-02 1.30378094e-03 9.12646670e-03 2.04259008e-02
      2.17296835e-03 8.69187294e-04 0. 4.34593647e-04 8.25727917e-03
      2.17296835e-03 1.26032159e-02 3.78096476e-02 9.99565423e-03
      1.73837459e-03 1.30378094e-03 2.17296835e-03 1.30378094e-03 0.
      2.17296835e-03 4.34593647e-04 9.12646670e-03 1.30378094e-03
      4.34593647e-04 1.73837459e-03 1.26032159e-02 1.73837459e-03
      3.73750553e-02 2.60756183e-02 3.47674917e-03 0. 0. 8.69187294e-04
      1.30378094e-03 0. 8.69187294e-04 2.17296835e-03 0. 0. 0. 0.
      1.30378094e-03 4.34593647e-04 1.30378094e-03 2.60756188e-03
      5.64971752e-03 3.47674917e-03 1.30378094e-03 8.69187294e-04
      1.30378094e-03 0. 1.73837459e-03 0. 9.99565423e-03 8.69187294e-04
      1.30378094e-03 8.69187294e-04 1.86875276e-02 0. 1.12994350e-02
      1.12994350e-02 6.95349835e-03 2.60756188e-03 8.69187294e-04
      1.30378094e-03 8.69187294e-04 0. 8.69187294e-04 8.69187294e-04 0.
      0. 0. 0. 1.30378094e-03 8.69187294e-04 8.69187294e-04
      1.73837459e-03 3.04215541e-03 0. 0. 0. 0. 0. 0. 0. 8.69187294e-04
      0. 0. 0. 1.30378094e-03 0. 2.60756188e-03 1.30378094e-03
      3.47674917e-03 3.47674917e-03 8.69187294e-04 1.30378094e-03
      8.69187294e-04 0. 8.69187294e-04 8.69187294e-04 8.69187294e-04 0.
      4.34593647e-04 0. 1.30378094e-03 0. 1.73837459e-03 8.69187294e-04
      2.60756183e-02 1.73837459e-03 8.69187294e-04 0. 0. 0.
      1.30378094e-03 4.34593647e-04 2.30334625e-02 4.34593647e-04
      8.69187294e-04 2.17296835e-03 1.04302475e-02 0. 8.69187340e-03
      5.64971752e-03 8.69187294e-04 8.25727917e-03 8.69187294e-04
      1.56453717e-02 8.69187294e-04 4.34593647e-04 4.34593647e-04
      3.34637091e-02 1.30378094e-03 4.34593647e-04 0. 0. 1.73837459e-03
      4.34593647e-04 1.73837459e-03 1.99913085e-02 8.69187294e-04
      1.73837459e-03 0. 0. 0. 0. 0. 0. 1.73837459e-03 8.69187294e-04
      8.69187294e-04 8.69187294e-04 2.60756188e-03 1.73837459e-03
      1.73837459e-03 9.56106000e-03 0. 0. 0. 0. 0. 0. 0. 3.47674917e-03
      0. 0. 0. 0. 0. 0. 4.34593647e-04 8.69187294e-04 1.30378094e-03
      8.69187294e-04 0. 1.30378094e-03 0. 0. 0. 1.30378094e-03
      4.34593647e-04 4.34593647e-04 0. 1.73837459e-03 1.30378094e-03
      1.30378094e-03 4.34593647e-04 1.30378092e-02 8.69187340e-03
      1.26032159e-02 8.69187294e-04 3.04215550e-02 8.69187294e-04
      4.34593647e-04 0. 1.73837468e-02 0. 1.30378094e-03 4.34593647e-04
      1.30378094e-03 8.69187294e-04 4.34593647e-04 8.69187294e-04
      1.34724034e-02 0. 1.30378094e-03 0. 1.30378094e-03 0. 0. 0.
      1.73837459e-03 4.34593647e-04 4.34593647e-04 8.69187294e-04
      1.30378094e-03 4.34593647e-04 0. 1.73837459e-03 7.38809211e-03
      1.52107775e-02 2.08604950e-02 8.69187294e-04 1.08648408e-02 0.
      4.34593647e-04 8.69187294e-04 7.82268587e-03 1.73837459e-03
      1.30378094e-03 4.34593647e-04 1.73837459e-03 2.60756188e-03
      1.30378094e-03 8.69187294e-04 1.43415900e-02 4.17209901e-02
      2.12950893e-02 4.34593647e-04 4.78053000e-03 4.34593647e-04
      4.34593647e-04 8.69187294e-04 6.95349835e-03 2.56410260e-02
      8.69187340e-03 4.34593647e-04 7.38809211e-03 9.12646670e-03
      4.34593670e-03 1.39069967e-02 4.60669249e-02</_>
    <_>
      3.69404592e-02 1.26032159e-02 5.64971752e-03 3.91134294e-03
      4.34593670e-03 1.73837459e-03 3.47674917e-03 1.30378092e-02
      6.08431082e-03 2.17296835e-03 4.34593647e-04 4.34593647e-04
      5.21512376e-03 2.60756188e-03 1.47761842e-02 3.43328975e-02
      1.78183392e-02 3.47674917e-03 4.34593670e-03 3.04215541e-03
      1.73837459e-03 0. 2.60756188e-03 2.17296835e-03 6.51890459e-03
      8.69187294e-04 8.69187294e-04 1.30378094e-03 1.60799641e-02
      8.69187294e-04 4.30247709e-02 2.65102126e-02 5.21512376e-03
      2.17296835e-03 4.34593647e-04 0. 1.30378094e-03 0. 4.34593647e-04
      1.73837459e-03 8.69187294e-04 4.34593647e-04 0. 0. 1.30378094e-03
      0. 2.17296835e-03 3.91134294e-03 1.26032159e-02 4.34593647e-04
      8.69187294e-04 1.30378094e-03 2.60756188e-03 8.69187294e-04
      1.30378094e-03 8.69187294e-04 1.60799641e-02 1.73837459e-03
      8.69187294e-04 4.34593647e-04 2.73793992e-02 2.17296835e-03
      1.65145583e-02 9.12646670e-03 5.21512376e-03 1.73837459e-03
      4.34593647e-04 8.69187294e-04 8.69187294e-04 4.34593647e-04
      4.34593647e-04 8.69187294e-04 8.69187294e-04 4.34593647e-04 0. 0.
      1.30378094e-03 0. 1.30378094e-03 1.73837459e-03 8.69187294e-04
      8.69187294e-04 4.34593647e-04 0. 0. 0. 0. 0. 1.73837459e-03 0. 0.
      4.34593647e-04 8.69187294e-04 0. 8.69187294e-04 1.73837459e-03
      6.08431082e-03 1.30378094e-03 1.30378094e-03 4.34593647e-04
      1.73837459e-03 0. 4.34593647e-04 1.73837459e-03 4.34593647e-04
      8.69187294e-04 4.34593647e-04 4.34593647e-04 1.73837459e-03 0.
      1.30378094e-03 4.34593670e-03 1.08648408e-02 2.17296835e-03
      8.69187294e-04 4.34593647e-04 2.60756188e-03 0. 4.34593647e-04
      1.30378094e-03 3.17253359e-02 1.73837459e-03 2.17296835e-03 0.
      3.25945243e-02 1.30378094e-03 7.82268587e-03 5.21512376e-03
      6.08431082e-03 5.64971752e-03 4.34593647e-04 3.47674917e-03 0.
      1.30378094e-03 4.34593647e-04 1.17340283e-02 8.69187294e-04
      8.69187294e-04 0. 4.34593647e-04 0. 3.04215541e-03 8.69187294e-04
      1.34724034e-02 1.73837459e-03 1.30378094e-03 4.34593647e-04
      4.34593647e-04 0. 0. 4.34593647e-04 2.17296835e-03 8.69187294e-04
      0. 0. 0. 1.30378094e-03 8.69187294e-04 6.95349835e-03
      6.95349835e-03 0. 4.34593647e-04 0. 4.34593647e-04 0. 0. 0.
      2.17296835e-03 0. 4.34593647e-04 0. 0. 4.34593647e-04 0. 0.
      1.30378094e-03 4.34593647e-04 4.34593647e-04 0. 4.34593647e-04 0.
      0. 0. 4.34593647e-04 0. 0. 0. 1.30378094e-03 1.30378094e-03
      4.34593647e-04 1.73837459e-03 6.08431082e-03 5.21512376e-03
      1.26032159e-02 1.30378094e-03 1.34724034e-02 8.69187294e-04
      8.69187294e-04 2.17296835e-03 3.04215541e-03 8.69187294e-04
      8.69187294e-04 0. 1.30378094e-03 4.34593647e-04 8.69187294e-04
      8.69187294e-04 8.25727917e-03 1.73837459e-03 0. 2.60756188e-03
      8.69187294e-04 4.34593647e-04 0. 4.34593647e-04 4.34593647e-04
      4.34593647e-04 4.34593647e-04 0. 4.34593647e-04 8.69187294e-04
      2.17296835e-03 3.04215541e-03 9.12646670e-03 1.04302475e-02
      3.56366783e-02 0. 1.47761842e-02 4.34593647e-04 4.34593647e-04
      1.30378094e-03 8.25727917e-03 4.34593647e-04 3.47674917e-03
      4.34593647e-04 1.30378094e-03 1.73837459e-03 1.73837459e-03
      8.69187294e-04 2.43372433e-02 2.17296816e-02 1.60799641e-02
      1.73837459e-03 9.12646670e-03 8.69187294e-04 1.73837459e-03
      1.73837459e-03 7.38809211e-03 1.82529334e-02 8.69187340e-03
      1.30378094e-03 8.25727917e-03 1.04302475e-02 8.69187340e-03
      1.86875276e-02 5.12820520e-02 2.60756183e-02 1.56453717e-02
      6.08431082e-03 1.17340283e-02 1.21686216e-02 8.69187294e-04
      7.38809211e-03 2.99869608e-02 7.82268587e-03 1.73837459e-03
      4.34593647e-04 1.30378094e-03 9.12646670e-03 3.04215541e-03
      1.69491526e-02 3.17253359e-02 1.21686216e-02 2.60756188e-03
      2.17296835e-03 1.73837459e-03 1.73837459e-03 0. 1.73837459e-03
      8.69187294e-04 6.51890459e-03 8.69187294e-04 1.73837459e-03 0.
      9.56106000e-03 3.04215541e-03 5.47587983e-02 4.08518016e-02
      3.04215541e-03 1.30378094e-03 4.34593647e-04 1.73837459e-03
      1.30378094e-03 0. 0. 4.34593647e-04 8.69187294e-04 0. 0. 0.
      8.69187294e-04 0. 1.30378094e-03 2.60756188e-03 3.04215541e-03
      2.60756188e-03 0. 0. 0. 0. 1.30378094e-03 8.69187294e-04
      2.60756188e-03 1.73837459e-03 4.34593647e-04 8.69187294e-04
      7.38809211e-03 4.34593647e-04 1.78183392e-02 1.78183392e-02
      6.95349835e-03 1.30378094e-03 4.34593647e-04 8.69187294e-04
      2.60756188e-03 0. 2.60756188e-03 1.73837459e-03 1.30378094e-03
      4.34593647e-04 0. 0. 4.34593647e-04 4.34593647e-04 1.30378094e-03
      4.34593647e-04 1.30378094e-03 0. 1.30378094e-03 4.34593647e-04
      4.34593647e-04 0. 4.34593647e-04 0. 1.73837459e-03 0. 0.
      4.34593647e-04 8.69187294e-04 0. 4.34593647e-04 4.34593647e-04
      2.60756188e-03 1.73837459e-03 4.34593647e-04 8.69187294e-04
      4.34593647e-04 0. 4.34593647e-04 1.30378094e-03 1.30378094e-03 0.
      0. 1.30378094e-03 0. 4.34593647e-04 2.17296835e-03 1.73837459e-03
      5.64971752e-03 0. 1.73837459e-03 4.34593647e-04 4.34593647e-04
      4.34593647e-04 8.69187294e-04 4.34593647e-04 4.78053000e-03
      4.34593647e-04 8.69187294e-04 4.34593647e-04 3.47674917e-03
      1.30378094e-03 1.34724034e-02 9.99565423e-03 4.34593670e-03
      6.51890459e-03 0. 1.17340283e-02 1.30378094e-03 1.30378094e-03
      1.30378094e-03 6.38852641e-02 1.30378094e-03 4.34593647e-04 0.
      4.34593647e-04 1.30378094e-03 2.60756188e-03 1.73837459e-03
      2.73793992e-02 1.73837459e-03 1.30378094e-03 4.34593647e-04
      4.34593647e-04 0. 0. 4.34593647e-04 1.30378094e-03 4.34593647e-04
      0. 0. 0. 8.69187294e-04 1.30378094e-03 4.78053000e-03
      1.69491526e-02 0. 4.34593647e-04 0. 0. 0. 4.34593647e-04 0.
      1.73837459e-03 4.34593647e-04 0. 0. 0. 4.34593647e-04 0.
      8.69187294e-04 1.30378094e-03 8.69187294e-04 0. 0. 8.69187294e-04
      0. 0. 0. 1.30378094e-03 4.34593647e-04 4.34593647e-04
      4.34593647e-04 1.30378094e-03 8.69187294e-04 1.30378094e-03
      8.69187294e-04 1.43415900e-02 3.47674917e-03 8.25727917e-03
      4.34593647e-04 1.73837468e-02 4.34593647e-04 0. 4.34593647e-04
      2.43372433e-02 8.69187294e-04 8.69187294e-04 0. 1.30378094e-03 0.
      1.73837459e-03 4.34593647e-04 1.78183392e-02 3.47674917e-03
      4.34593647e-04 0. 8.69187294e-04 0. 0. 0. 4.34593647e-04
      2.17296835e-03 8.69187294e-04 0. 1.30378094e-03 1.73837459e-03
      4.34593647e-04 2.60756188e-03 1.04302475e-02 6.51890459e-03
      2.04259008e-02 4.34593647e-04 1.39069967e-02 0. 8.69187294e-04
      4.34593647e-04 9.99565423e-03 0. 3.04215541e-03 0. 0.
      4.34593647e-04 4.78053000e-03 2.17296835e-03 1.47761842e-02
      1.52107775e-02 1.04302475e-02 3.04215541e-03 7.38809211e-03
      1.30378094e-03 1.30378094e-03 2.17296835e-03 8.69187340e-03
      6.08431082e-03 7.82268587e-03 1.30378094e-03 4.34593670e-03
      9.99565423e-03 2.60756188e-03 1.82529334e-02 5.38896136e-02
      2.65102126e-02 8.25727917e-03 1.30378094e-03 5.21512376e-03
      1.04302475e-02 8.69187294e-04 5.64971752e-03 8.69187340e-03
      2.60756188e-03 1.30378094e-03 4.34593647e-04 0. 4.34593670e-03
      4.34593647e-04 7.38809211e-03 2.25988701e-02 8.25727917e-03
      1.30378094e-03 4.34593647e-04 4.34593647e-04 1.73837459e-03 0.
      4.34593647e-04 4.34593647e-04 5.64971752e-03 4.34593647e-04 0.
      8.69187294e-04 7.82268587e-03 2.60756188e-03 1.17340283e-02
      1.17340283e-02 5.21512376e-03 2.17296835e-03 4.34593647e-04
      4.34593647e-04 8.69187294e-04 8.69187294e-04 0. 3.47674917e-03
      4.34593647e-04 0. 0. 0. 8.69187294e-04 0. 0. 1.30378094e-03
      6.08431082e-03 8.69187294e-04 0. 4.34593647e-04 8.69187294e-04 0.
      2.17296835e-03 0. 1.08648408e-02 8.69187294e-04 8.69187294e-04
      4.34593647e-04 1.91221200e-02 0. 6.08431082e-03 5.21512376e-03
      5.64971752e-03 1.30378094e-03 8.69187294e-04 1.30378094e-03
      8.69187294e-04 4.34593647e-04 0. 4.34593647e-04 3.47674917e-03 0.
      0. 0. 8.69187294e-04 0. 4.34593647e-04 1.73837459e-03
      1.73837459e-03 4.34593647e-04 0. 0. 4.34593647e-04 0.
      4.34593647e-04 4.34593647e-04 2.17296835e-03 0. 0. 0. 0. 0.
      8.69187294e-04 8.69187294e-04 1.04302475e-02 2.60756188e-03
      8.69187294e-04 0. 8.69187294e-04 8.69187294e-04 0. 8.69187294e-04
      1.30378094e-03 4.34593647e-04 0. 0. 1.30378094e-03 4.34593647e-04
      4.34593647e-04 8.69187294e-04 1.60799641e-02 2.60756188e-03
      2.17296835e-03 8.69187294e-04 2.60756188e-03 4.34593647e-04
      1.30378094e-03 1.73837459e-03 4.56323326e-02 1.73837459e-03
      2.17296835e-03 2.60756188e-03 1.34724034e-02 1.30378094e-03
      7.38809211e-03 7.38809211e-03 4.78053000e-03 3.47674917e-03 0.
      4.78053000e-03 8.69187294e-04 8.69187294e-04 1.30378094e-03
      2.21642759e-02 8.69187294e-04 1.73837459e-03 0. 1.30378094e-03
      4.34593647e-04 8.69187294e-04 4.34593647e-04 1.56453717e-02
      4.34593647e-04 8.69187294e-04 0. 0. 4.34593647e-04 0.
      4.34593647e-04 4.34593647e-04 8.69187294e-04 0. 0. 1.30378094e-03
      0. 1.30378094e-03 1.73837459e-03 4.34593670e-03 1.73837459e-03
      8.69187294e-04 0. 8.69187294e-04 0. 4.34593647e-04 0.
      2.17296835e-03 4.34593647e-04 0. 0. 0. 0. 0. 0. 2.17296835e-03
      4.34593647e-04 4.34593647e-04 0. 8.69187294e-04 4.34593647e-04 0.
      0. 1.30378094e-03 4.34593647e-04 4.34593647e-04 4.34593647e-04
      1.30378094e-03 3.47674917e-03 1.73837459e-03 8.69187294e-04
      1.04302475e-02 3.91134294e-03 1.52107775e-02 8.69187294e-04
      2.52064317e-02 8.69187294e-04 8.69187294e-04 0. 1.60799641e-02
      1.30378094e-03 8.69187294e-04 0. 4.34593647e-04 4.34593647e-04
      4.34593647e-04 8.69187294e-04 1.04302475e-02 1.30378094e-03
      1.73837459e-03 4.34593647e-04 4.34593647e-04 0. 0. 0.
      4.34593647e-04 3.04215541e-03 8.69187294e-04 0. 1.73837459e-03
      1.30378094e-03 0. 1.73837459e-03 6.08431082e-03 1.86875276e-02
      5.82355484e-02 2.17296835e-03 2.78139934e-02 4.34593647e-04
      8.69187294e-04 3.04215541e-03 9.99565423e-03 1.30378094e-03
      2.60756188e-03 4.34593647e-04 8.69187294e-04 8.69187294e-04
      1.73837459e-03 1.30378094e-03 9.56106000e-03 3.82442400e-02
      2.91177742e-02 2.60756188e-03 8.69187340e-03 4.34593647e-04
      3.47674917e-03 8.69187294e-04 9.56106000e-03 1.43415900e-02
      1.30378092e-02 1.30378094e-03 1.39069967e-02 1.47761842e-02
      1.43415900e-02 9.56106000e-03 1.00391135e-01 3.65058668e-02
      2.17296816e-02 3.47674917e-03 6.08431082e-03 8.25727917e-03 0.
      6.51890459e-03 6.95349835e-03 8.69187294e-04 0. 4.34593647e-04 0.
      4.34593670e-03 1.30378094e-03 9.56106000e-03 1.69491526e-02
      1.26032159e-02 3.47674917e-03 1.30378094e-03 2.60756188e-03
      1.73837459e-03 0. 1.73837459e-03 8.69187294e-04 6.51890459e-03 0.
      0. 8.69187294e-04 3.91134294e-03 0. 2.25988701e-02 1.39069967e-02
      4.78053000e-03 8.69187294e-04 4.34593647e-04 1.30378094e-03
      4.34593647e-04 8.69187294e-04 1.30378094e-03 8.69187294e-04
      1.30378094e-03 0. 0. 0. 0. 0. 1.30378094e-03 2.60756188e-03
      6.95349835e-03 8.69187294e-04 4.34593647e-04 8.69187294e-04
      1.73837459e-03 4.34593647e-04 2.17296835e-03 1.30378094e-03
      6.95349835e-03 0. 1.30378094e-03 0. 9.56106000e-03 0.
      9.99565423e-03 6.95349835e-03 7.38809211e-03 4.34593647e-04
      1.73837459e-03 2.17296835e-03 2.60756188e-03 0. 4.34593647e-04
      2.17296835e-03 4.34593647e-04 0. 0. 0. 4.34593647e-04 0.
      8.69187294e-04 8.69187294e-04 2.60756188e-03 4.34593647e-04 0.
      8.69187294e-04 4.34593647e-04 0. 0. 0. 2.17296835e-03 0. 0. 0.
      4.34593647e-04 0. 1.73837459e-03 1.30378094e-03 6.95349835e-03
      2.17296835e-03 8.69187294e-04 2.60756188e-03 0. 8.69187294e-04
      2.60756188e-03 2.17296835e-03 2.60756188e-03 0. 4.34593647e-04 0.
      8.69187294e-04 0. 8.69187294e-04 1.30378094e-03 1.04302475e-02
      8.69187294e-04 1.30378094e-03 1.30378094e-03 4.34593647e-04 0.
      1.30378094e-03 1.30378094e-03 1.52107775e-02 1.30378094e-03
      1.73837459e-03 2.17296835e-03 5.64971752e-03 8.69187294e-04
      7.82268587e-03 4.78053000e-03 3.47674917e-03 1.08648408e-02
      8.69187294e-04 1.21686216e-02 8.69187294e-04 1.73837459e-03
      8.69187294e-04 2.17296816e-02 8.69187294e-04 0. 0. 0.
      1.30378094e-03 8.69187294e-04 0. 3.47674917e-03 1.73837459e-03
      1.73837459e-03 4.34593647e-04 2.17296835e-03 0. 0. 0.
      8.69187294e-04 8.69187294e-04 0. 4.34593647e-04 8.69187294e-04
      1.73837459e-03 4.34593647e-04 2.60756188e-03 1.04302475e-02
      8.69187294e-04 4.34593647e-04 0. 0. 4.34593647e-04 0.
      4.34593647e-04 3.47674917e-03 4.34593647e-04 0. 0. 0. 0. 0. 0.
      1.30378094e-03 1.73837459e-03 2.17296835e-03 0. 1.30378094e-03
      4.34593647e-04 0. 0. 8.69187294e-04 8.69187294e-04 8.69187294e-04
      0. 1.30378094e-03 2.17296835e-03 4.34593647e-04 1.73837459e-03
      8.69187340e-03 1.08648408e-02 2.30334625e-02 8.69187294e-04
      3.73750553e-02 4.34593647e-04 2.17296835e-03 2.17296835e-03
      2.47718375e-02 8.69187294e-04 4.34593647e-04 8.69187294e-04
      3.04215541e-03 8.69187294e-04 1.30378094e-03 8.69187294e-04
      1.17340283e-02 1.73837459e-03 2.17296835e-03 4.34593647e-04
      4.34593647e-04 0. 0. 4.34593647e-04 1.30378094e-03 4.34593647e-04
      3.91134294e-03 0. 1.30378094e-03 2.17296835e-03 1.73837459e-03
      3.04215541e-03 7.82268587e-03 1.65145583e-02 3.91134284e-02
      1.73837459e-03 2.12950893e-02 1.30378094e-03 1.30378094e-03
      4.34593647e-04 1.21686216e-02 0. 4.34593670e-03 0. 2.17296835e-03
      0. 1.73837459e-03 4.34593647e-04 1.78183392e-02 3.47674936e-02
      2.60756183e-02 1.73837459e-03 1.60799641e-02 3.91134294e-03
      4.34593647e-04 1.30378094e-03 1.17340283e-02 1.34724034e-02
      1.56453717e-02 1.73837459e-03 1.04302475e-02 1.65145583e-02
      1.08648408e-02 1.60799641e-02 6.56236410e-02</_>
    <_>
      4.56323326e-02 1.21686216e-02 6.95349835e-03 7.38809211e-03
      1.30378092e-02 3.04215541e-03 1.08648408e-02 1.08648408e-02
      7.82268587e-03 2.60756188e-03 1.30378094e-03 4.34593647e-04
      1.21686216e-02 2.60756188e-03 1.43415900e-02 2.78139934e-02
      6.95349835e-03 1.30378094e-03 3.91134294e-03 3.04215541e-03
      2.17296835e-03 0. 5.21512376e-03 8.69187294e-04 1.08648408e-02
      3.04215541e-03 3.04215541e-03 2.60756188e-03 1.43415900e-02
      4.34593670e-03 3.17253359e-02 2.08604950e-02 8.25727917e-03
      8.69187294e-04 2.17296835e-03 1.30378094e-03 1.30378094e-03
      8.69187294e-04 4.34593647e-04 2.17296835e-03 4.34593647e-04
      4.34593647e-04 4.34593647e-04 4.34593647e-04 4.34593647e-04 0.
      2.60756188e-03 2.17296835e-03 6.95349835e-03 0. 1.30378094e-03
      1.73837459e-03 4.34593670e-03 4.34593647e-04 3.04215541e-03 0.
      7.38809211e-03 8.69187294e-04 0. 4.34593647e-04 2.21642759e-02
      8.69187294e-04 2.30334625e-02 1.30378092e-02 1.17340283e-02
      4.78053000e-03 1.30378094e-03 8.69187294e-04 1.30378094e-03 0.
      4.34593647e-04 8.69187294e-04 1.30378094e-03 4.34593647e-04
      8.69187294e-04 0. 4.34593647e-04 4.34593647e-04 1.30378094e-03
      8.69187294e-04 1.30378094e-03 0. 0. 0. 0. 0. 0. 0. 2.60756188e-03
      8.69187294e-04 4.34593647e-04 4.34593647e-04 1.30378094e-03 0.
      1.30378094e-03 2.17296835e-03 8.69187340e-03 4.78053000e-03
      1.30378094e-03 2.60756188e-03 1.30378094e-03 0. 4.34593647e-04
      1.30378094e-03 1.30378094e-03 8.69187294e-04 0. 8.69187294e-04
      1.30378094e-03 4.34593647e-04 8.69187294e-04 3.47674917e-03
      7.82268587e-03 8.69187294e-04 2.17296835e-03 8.69187294e-04
      8.69187294e-04 0. 1.30378094e-03 8.69187294e-04 1.04302475e-02 0.
      2.60756188e-03 2.17296835e-03 1.12994350e-02 1.73837459e-03
      1.43415900e-02 9.99565423e-03 6.51890459e-03 7.38809211e-03 0.
      8.25727917e-03 2.17296835e-03 2.60756188e-03 1.30378094e-03
      1.08648408e-02 8.69187294e-04 1.30378094e-03 4.34593647e-04
      1.30378094e-03 1.30378094e-03 1.73837459e-03 4.34593647e-04
      1.56453717e-02 8.69187294e-04 1.73837459e-03 0. 1.30378094e-03 0.
      4.34593647e-04 0. 8.69187294e-04 0. 4.34593647e-04 0.
      4.34593647e-04 3.04215541e-03 4.34593647e-04 4.78053000e-03
      1.26032159e-02 0. 1.30378094e-03 0. 8.69187294e-04 4.34593647e-04
      4.34593647e-04 0. 2.17296835e-03 4.34593647e-04 0. 0. 0. 0. 0.
      4.34593647e-04 2.60756188e-03 4.34593647e-04 8.69187294e-04 0.
      1.30378094e-03 0. 4.34593647e-04 4.34593647e-04 3.04215541e-03
      8.69187294e-04 4.34593647e-04 0. 0. 3.47674917e-03 1.30378094e-03
      2.60756188e-03 7.38809211e-03 3.91134294e-03 1.12994350e-02
      4.34593647e-04 6.08431082e-03 8.69187294e-04 2.17296835e-03
      4.34593647e-04 6.95349835e-03 1.73837459e-03 1.73837459e-03 0.
      1.30378094e-03 4.34593647e-04 4.34593647e-04 8.69187294e-04
      1.21686216e-02 3.04215541e-03 8.69187294e-04 0. 8.69187294e-04 0.
      0. 0. 1.30378094e-03 1.30378094e-03 1.73837459e-03 0.
      2.60756188e-03 3.04215541e-03 8.69187294e-04 2.60756188e-03
      9.12646670e-03 9.56106000e-03 3.04215550e-02 3.04215541e-03
      1.17340283e-02 8.69187294e-04 1.73837459e-03 4.34593647e-04
      7.38809211e-03 8.69187294e-04 5.21512376e-03 4.34593647e-04
      2.17296835e-03 4.34593647e-04 2.60756188e-03 1.30378094e-03
      1.69491526e-02 1.82529334e-02 1.47761842e-02 2.17296835e-03
      4.78053000e-03 2.17296835e-03 1.73837459e-03 1.73837459e-03
      8.25727917e-03 1.08648408e-02 8.25727917e-03 4.34593647e-04
      1.21686216e-02 6.51890459e-03 1.04302475e-02 1.34724034e-02
      5.25858328e-02 3.82442400e-02 1.65145583e-02 1.12994350e-02
      1.04302475e-02 6.95349835e-03 3.04215541e-03 1.04302475e-02
      2.73793992e-02 8.69187340e-03 3.91134294e-03 4.34593647e-04
      8.69187294e-04 1.26032159e-02 4.78053000e-03 2.12950893e-02
      4.60669249e-02 1.21686216e-02 1.30378094e-03 1.73837459e-03
      4.34593647e-04 1.30378094e-03 0. 7.38809211e-03 3.04215541e-03
      7.38809211e-03 1.30378094e-03 8.69187294e-04 1.73837459e-03
      9.12646670e-03 1.30378094e-03 2.99869608e-02 2.34680567e-02
      2.17296835e-03 3.04215541e-03 4.34593647e-04 1.30378094e-03
      4.34593647e-04 0. 8.69187294e-04 1.30378094e-03 8.69187294e-04
      4.34593647e-04 0. 0. 8.69187294e-04 0. 8.69187294e-04
      4.78053000e-03 2.60756188e-03 8.69187294e-04 1.30378094e-03
      4.34593647e-04 4.34593647e-04 0. 1.73837459e-03 3.47674917e-03
      1.73837459e-03 0. 0. 8.69187294e-04 3.04215541e-03 4.34593647e-04
      1.30378092e-02 1.39069967e-02 6.95349835e-03 8.69187294e-04
      2.17296835e-03 1.30378094e-03 4.34593647e-04 0. 4.34593647e-04
      1.30378094e-03 8.69187294e-04 0. 8.69187294e-04 4.34593647e-04
      8.69187294e-04 0. 2.17296835e-03 8.69187294e-04 2.60756188e-03 0.
      1.30378094e-03 4.34593647e-04 4.34593647e-04 0. 8.69187294e-04 0.
      1.73837459e-03 8.69187294e-04 4.34593647e-04 4.34593647e-04 0. 0.
      1.73837459e-03 2.60756188e-03 3.91134294e-03 2.17296835e-03
      2.60756188e-03 4.34593647e-04 4.34593647e-04 0. 8.69187294e-04
      1.73837459e-03 0. 0. 0. 4.34593647e-04 0. 0. 4.34593647e-04
      5.21512376e-03 6.08431082e-03 1.73837459e-03 8.69187294e-04 0. 0.
      0. 4.34593647e-04 1.73837459e-03 4.34593670e-03 0. 3.04215541e-03
      2.17296835e-03 8.69187294e-04 0. 1.04302475e-02 7.82268587e-03
      6.51890459e-03 9.99565423e-03 0. 1.08648408e-02 8.69187294e-04
      1.30378094e-03 2.17296835e-03 1.86875276e-02 1.73837459e-03
      4.34593647e-04 0. 4.34593647e-04 2.17296835e-03 1.73837459e-03
      3.47674917e-03 2.56410260e-02 3.04215541e-03 8.69187294e-04
      8.69187294e-04 2.60756188e-03 4.34593647e-04 4.34593647e-04
      4.34593647e-04 3.04215541e-03 8.69187294e-04 8.69187294e-04 0.
      1.73837459e-03 1.30378094e-03 0. 2.60756188e-03 1.60799641e-02
      4.34593647e-04 4.34593647e-04 0. 0. 0. 4.34593647e-04 0.
      2.60756188e-03 0. 0. 0. 8.69187294e-04 0. 0. 0. 1.73837459e-03
      4.34593647e-04 4.34593647e-04 0. 1.30378094e-03 4.34593647e-04 0.
      4.34593647e-04 2.17296835e-03 4.34593647e-04 0. 0. 8.69187294e-04
      1.30378094e-03 0. 2.17296835e-03 9.12646670e-03 8.25727917e-03
      1.21686216e-02 0. 1.26032159e-02 1.30378094e-03 8.69187294e-04
      1.30378094e-03 1.21686216e-02 2.17296835e-03 1.73837459e-03
      4.34593647e-04 1.73837459e-03 8.69187294e-04 1.30378094e-03
      2.17296835e-03 1.26032159e-02 3.47674917e-03 1.30378094e-03
      1.30378094e-03 4.34593647e-04 0. 0. 0. 1.30378094e-03
      1.30378094e-03 4.34593647e-04 8.69187294e-04 1.30378094e-03
      2.17296835e-03 4.34593647e-04 4.34593670e-03 1.08648408e-02
      1.21686216e-02 3.52020860e-02 0. 1.60799641e-02 8.69187294e-04
      1.73837459e-03 8.69187294e-04 9.56106000e-03 4.34593647e-04
      2.17296835e-03 0. 3.47674917e-03 4.34593647e-04 1.73837459e-03
      1.73837459e-03 1.86875276e-02 1.99913085e-02 2.04259008e-02
      1.73837459e-03 9.56106000e-03 1.30378094e-03 1.30378094e-03
      3.04215541e-03 5.64971752e-03 6.51890459e-03 5.64971752e-03
      2.17296835e-03 6.51890459e-03 6.08431082e-03 5.64971752e-03
      1.26032159e-02 6.08431101e-02 4.43285517e-02 1.04302475e-02
      5.21512376e-03 7.82268587e-03 6.51890459e-03 1.30378094e-03
      6.51890459e-03 1.12994350e-02 6.08431082e-03 2.17296835e-03
      4.34593647e-04 1.30378094e-03 6.95349835e-03 1.30378094e-03
      1.21686216e-02 2.25988701e-02 5.21512376e-03 1.73837459e-03
      8.69187294e-04 1.30378094e-03 1.73837459e-03 0. 1.30378094e-03
      1.73837459e-03 7.82268587e-03 4.34593647e-04 0. 0. 1.08648408e-02
      8.69187294e-04 2.39026509e-02 1.47761842e-02 6.51890459e-03
      2.17296835e-03 8.69187294e-04 8.69187294e-04 1.73837459e-03 0.
      8.69187294e-04 1.73837459e-03 4.34593647e-04 0. 0. 0.
      8.69187294e-04 1.30378094e-03 8.69187294e-04 1.73837459e-03
      9.12646670e-03 8.69187294e-04 8.69187294e-04 2.60756188e-03
      1.30378094e-03 0. 1.30378094e-03 4.34593647e-04 1.21686216e-02 0.
      0. 4.34593647e-04 1.69491526e-02 1.73837459e-03 8.69187340e-03
      9.56106000e-03 1.21686216e-02 2.60756188e-03 1.30378094e-03
      4.34593647e-04 1.73837459e-03 0. 0. 8.69187294e-04 3.47674917e-03
      4.34593647e-04 0. 4.34593647e-04 8.69187294e-04 0. 0.
      4.34593647e-04 2.17296835e-03 0. 4.34593647e-04 4.34593647e-04
      8.69187294e-04 0. 0. 4.34593647e-04 2.60756188e-03 0.
      8.69187294e-04 8.69187294e-04 0. 0. 8.69187294e-04 8.69187294e-04
      8.25727917e-03 2.17296835e-03 1.30378094e-03 1.30378094e-03
      1.30378094e-03 4.34593647e-04 4.34593647e-04 3.47674917e-03
      1.30378094e-03 0. 4.34593647e-04 0. 8.69187294e-04 0. 0.
      2.17296835e-03 1.82529334e-02 2.60756188e-03 2.17296835e-03
      1.73837459e-03 1.73837459e-03 4.34593647e-04 2.17296835e-03
      4.34593647e-04 1.78183392e-02 1.73837459e-03 3.47674917e-03
      2.60756188e-03 9.56106000e-03 1.73837459e-03 8.25727917e-03
      6.51890459e-03 9.12646670e-03 1.04302475e-02 4.34593647e-04
      6.51890459e-03 3.47674917e-03 5.21512376e-03 4.34593647e-04
      1.34724034e-02 1.30378094e-03 8.69187294e-04 4.34593647e-04
      1.30378094e-03 1.73837459e-03 4.34593647e-04 8.69187294e-04
      1.65145583e-02 2.60756188e-03 4.34593647e-04 0. 4.34593647e-04
      4.34593647e-04 4.34593647e-04 4.34593647e-04 1.73837459e-03 0.
      8.69187294e-04 0. 0. 3.04215541e-03 4.34593647e-04 0.
      4.78053000e-03 8.69187294e-04 1.30378094e-03 0. 1.30378094e-03
      4.34593647e-04 4.34593647e-04 4.34593647e-04 3.04215541e-03 0. 0.
      0. 0. 0. 8.69187294e-04 0. 2.17296835e-03 8.69187294e-04
      4.34593647e-04 0. 4.34593647e-04 0. 4.34593647e-04 0.
      2.17296835e-03 1.73837459e-03 1.73837459e-03 0. 4.34593647e-04
      3.04215541e-03 8.69187294e-04 1.30378094e-03 9.56106000e-03
      1.04302475e-02 1.69491526e-02 1.73837459e-03 1.78183392e-02
      1.73837459e-03 0. 8.69187294e-04 7.82268587e-03 8.69187294e-04
      2.60756188e-03 8.69187294e-04 1.30378094e-03 1.30378094e-03
      1.73837459e-03 0. 1.04302475e-02 1.30378094e-03 4.34593647e-04
      1.30378094e-03 2.17296835e-03 0. 0. 1.73837459e-03 0.
      2.17296835e-03 3.04215541e-03 1.30378094e-03 1.73837459e-03
      1.73837459e-03 1.30378094e-03 1.73837459e-03 6.08431082e-03
      2.25988701e-02 3.30291167e-02 8.69187294e-04 1.73837468e-02
      1.73837459e-03 8.69187294e-04 2.60756188e-03 1.82529334e-02
      4.34593647e-04 2.17296835e-03 4.34593647e-04 1.30378094e-03
      1.73837459e-03 4.34593647e-04 8.69187294e-04 1.65145583e-02
      2.52064317e-02 1.95567142e-02 3.04215541e-03 1.56453717e-02
      1.73837459e-03 1.30378094e-03 4.34593647e-04 9.12646670e-03
      1.60799641e-02 1.52107775e-02 1.73837459e-03 1.73837468e-02
      1.12994350e-02 6.51890459e-03 1.12994350e-02 5.34550175e-02
      4.25901785e-02 1.56453717e-02 7.38809211e-03 9.99565423e-03
      1.26032159e-02 8.69187294e-04 6.95349835e-03 1.34724034e-02
      5.21512376e-03 2.60756188e-03 8.69187294e-04 8.69187294e-04
      4.78053000e-03 2.17296835e-03 1.08648408e-02 1.78183392e-02
      8.69187340e-03 3.04215541e-03 2.60756188e-03 1.73837459e-03
      3.04215541e-03 0. 1.73837459e-03 0. 3.47674917e-03 8.69187294e-04
      1.30378094e-03 1.73837459e-03 1.04302475e-02 2.17296835e-03
      3.60712744e-02 1.43415900e-02 6.95349835e-03 1.30378094e-03
      8.69187294e-04 4.34593647e-04 2.17296835e-03 0. 2.17296835e-03
      1.30378094e-03 0. 0. 0. 4.34593647e-04 0. 0. 8.69187294e-04
      8.69187294e-04 5.64971752e-03 8.69187294e-04 0. 8.69187294e-04
      2.17296835e-03 0. 1.73837459e-03 2.60756188e-03 3.04215541e-03 0.
      0. 8.69187294e-04 2.04259008e-02 4.34593647e-04 1.30378092e-02
      9.99565423e-03 9.12646670e-03 3.47674917e-03 3.47674917e-03
      5.21512376e-03 1.73837459e-03 0. 4.34593647e-04 4.34593647e-04
      1.30378094e-03 8.69187294e-04 0. 1.30378094e-03 4.34593647e-04
      4.34593647e-04 4.34593647e-04 4.34593647e-04 1.73837459e-03
      8.69187294e-04 0. 0. 0. 0. 0. 0. 4.34593647e-04 0. 8.69187294e-04
      8.69187294e-04 8.69187294e-04 4.34593647e-04 1.73837459e-03
      1.30378094e-03 9.12646670e-03 3.91134294e-03 1.73837459e-03
      2.60756188e-03 8.69187294e-04 0. 0. 2.17296835e-03 0. 0. 0.
      8.69187294e-04 3.91134294e-03 0. 1.73837459e-03 4.34593647e-04
      1.39069967e-02 2.60756188e-03 4.34593647e-04 8.69187294e-04
      1.30378094e-03 4.34593647e-04 1.30378094e-03 8.69187294e-04
      1.04302475e-02 4.34593647e-04 0. 0. 3.04215541e-03 1.30378094e-03
      5.64971752e-03 5.64971752e-03 6.51890459e-03 1.08648408e-02
      8.69187294e-04 1.39069967e-02 8.69187294e-04 1.30378094e-03
      1.30378094e-03 8.69187340e-03 4.34593647e-04 1.30378094e-03 0.
      4.34593647e-04 8.69187294e-04 1.73837459e-03 8.69187294e-04
      7.38809211e-03 2.17296835e-03 4.34593647e-04 0. 1.73837459e-03 0.
      4.34593647e-04 4.34593647e-04 8.69187294e-04 1.30378094e-03
      8.69187294e-04 0. 1.30378094e-03 8.69187294e-04 1.73837459e-03
      1.73837459e-03 7.82268587e-03 8.69187294e-04 2.60756188e-03 0.
      1.73837459e-03 8.69187294e-04 8.69187294e-04 0. 1.30378094e-03 0.
      4.34593647e-04 0. 0. 0. 0. 0. 1.73837459e-03 1.73837459e-03
      4.34593647e-04 0. 8.69187294e-04 8.69187294e-04 0. 0.
      3.04215541e-03 0. 0. 0. 1.30378094e-03 3.04215541e-03
      2.17296835e-03 1.73837459e-03 1.65145583e-02 1.04302475e-02
      1.26032159e-02 4.34593647e-04 2.95523684e-02 1.30378094e-03
      2.17296835e-03 1.30378094e-03 1.47761842e-02 4.34593647e-04
      2.60756188e-03 0. 7.38809211e-03 8.69187294e-04 4.34593647e-04
      8.69187294e-04 8.69187340e-03 3.47674917e-03 8.69187294e-04
      8.69187294e-04 8.69187294e-04 0. 0. 8.69187294e-04 2.17296835e-03
      1.73837459e-03 2.17296835e-03 0. 1.73837459e-03 1.30378094e-03
      1.30378094e-03 2.60756188e-03 9.12646670e-03 1.47761842e-02
      3.69404592e-02 1.30378094e-03 1.69491526e-02 8.69187294e-04
      1.73837459e-03 1.30378094e-03 1.08648408e-02 1.30378094e-03
      3.47674917e-03 0. 5.21512376e-03 4.34593647e-04 8.69187294e-04
      3.04215541e-03 1.60799641e-02 2.78139934e-02 1.91221200e-02
      2.60756188e-03 1.12994350e-02 2.60756188e-03 1.73837459e-03
      4.34593647e-04 6.95349835e-03 7.82268587e-03 1.17340283e-02
      2.60756188e-03 1.39069967e-02 1.17340283e-02 1.30378092e-02
      9.56106000e-03 5.86701408e-02</_>
    <_>
      4.21555825e-02 9.99565423e-03 8.25727917e-03 7.82268587e-03
      9.99565423e-03 2.17296835e-03 5.64971752e-03 1.39069967e-02
      5.21512376e-03 1.30378094e-03 2.17296835e-03 2.17296835e-03
      6.51890459e-03 1.30378094e-03 1.43415900e-02 2.86831800e-02
      1.26032159e-02 2.60756188e-03 3.04215541e-03 4.34593647e-04
      3.91134294e-03 0. 1.73837459e-03 2.60756188e-03 6.08431082e-03
      4.34593647e-04 1.30378094e-03 1.30378094e-03 1.99913085e-02
      1.30378094e-03 2.30334625e-02 2.39026509e-02 5.21512376e-03
      8.69187294e-04 1.73837459e-03 0. 2.17296835e-03 0. 8.69187294e-04
      1.30378094e-03 1.30378094e-03 8.69187294e-04 0. 0. 1.73837459e-03
      0. 1.30378094e-03 1.30378094e-03 6.95349835e-03 0. 1.30378094e-03
      1.30378094e-03 4.34593670e-03 0. 1.73837459e-03 4.34593647e-04
      1.21686216e-02 1.30378094e-03 4.34593647e-04 2.17296835e-03
      3.17253359e-02 8.69187294e-04 2.04259008e-02 1.21686216e-02
      9.12646670e-03 2.17296835e-03 8.69187294e-04 2.60756188e-03
      2.17296835e-03 0. 4.34593647e-04 1.30378094e-03 2.17296835e-03
      8.69187294e-04 0. 0. 2.17296835e-03 0. 4.34593647e-04
      8.69187294e-04 8.69187294e-04 0. 4.34593647e-04 4.34593647e-04
      4.34593647e-04 0. 8.69187294e-04 0. 4.34593670e-03 4.34593647e-04
      0. 0. 2.17296835e-03 0. 4.34593647e-04 2.60756188e-03
      5.64971752e-03 1.30378094e-03 1.30378094e-03 2.60756188e-03
      1.73837459e-03 4.34593647e-04 8.69187294e-04 4.34593647e-04
      4.34593647e-04 0. 0. 0. 8.69187294e-04 0. 8.69187294e-04
      4.34593670e-03 1.08648408e-02 2.60756188e-03 8.69187294e-04
      8.69187294e-04 4.34593647e-04 4.34593647e-04 1.73837459e-03
      1.30378094e-03 1.52107775e-02 1.73837459e-03 3.04215541e-03
      4.34593647e-04 2.30334625e-02 1.73837459e-03 1.52107775e-02
      9.12646670e-03 4.34593647e-04 3.47674917e-03 4.34593647e-04
      5.21512376e-03 2.60756188e-03 1.30378094e-03 4.34593647e-04
      1.34724034e-02 4.34593647e-04 4.34593647e-04 0. 4.34593647e-04 0.
      0. 1.73837459e-03 1.26032159e-02 1.30378094e-03 1.30378094e-03 0.
      8.69187294e-04 4.34593647e-04 4.34593647e-04 1.30378094e-03 0.
      8.69187294e-04 1.30378094e-03 0. 1.30378094e-03 2.60756188e-03
      1.73837459e-03 3.04215541e-03 1.43415900e-02 0. 1.73837459e-03 0.
      0. 0. 0. 8.69187294e-04 1.73837459e-03 0. 0. 0. 0. 4.34593647e-04
      0. 0. 8.69187294e-04 1.73837459e-03 0. 4.34593647e-04
      4.34593647e-04 8.69187294e-04 0. 4.34593647e-04 1.30378094e-03
      2.17296835e-03 8.69187294e-04 4.34593647e-04 3.04215541e-03
      2.60756188e-03 3.04215541e-03 2.17296835e-03 1.30378092e-02
      2.60756188e-03 1.26032159e-02 4.34593647e-04 1.47761842e-02
      1.30378094e-03 1.30378094e-03 1.73837459e-03 1.17340283e-02
      1.30378094e-03 0. 0. 2.17296835e-03 1.73837459e-03 8.69187294e-04
      1.73837459e-03 9.56106000e-03 1.73837459e-03 8.69187294e-04 0. 0.
      8.69187294e-04 0. 4.34593647e-04 4.34593647e-04 1.30378094e-03
      1.30378094e-03 0. 1.30378094e-03 0. 4.34593647e-04 1.73837459e-03
      8.69187340e-03 7.38809211e-03 2.25988701e-02 8.69187294e-04
      1.17340283e-02 1.30378094e-03 1.30378094e-03 2.17296835e-03
      7.82268587e-03 1.30378094e-03 4.34593670e-03 0. 1.30378094e-03
      4.34593647e-04 3.91134294e-03 3.47674917e-03 1.65145583e-02
      1.82529334e-02 1.65145583e-02 1.73837459e-03 9.12646670e-03 0.
      8.69187294e-04 8.69187294e-04 7.38809211e-03 9.99565423e-03
      9.12646670e-03 1.73837459e-03 7.82268587e-03 1.12994350e-02
      1.17340283e-02 1.43415900e-02 6.77966103e-02 2.69448068e-02
      1.39069967e-02 5.21512376e-03 9.12646670e-03 1.47761842e-02
      3.47674917e-03 9.56106000e-03 2.95523684e-02 5.21512376e-03
      1.73837459e-03 1.30378094e-03 1.30378094e-03 3.04215541e-03
      1.30378094e-03 1.39069967e-02 6.51890486e-02 7.38809211e-03
      1.73837459e-03 8.69187294e-04 1.73837459e-03 0. 0. 1.30378094e-03
      3.47674917e-03 1.73837459e-03 4.34593647e-04 4.34593647e-04
      8.69187294e-04 4.78053000e-03 1.30378094e-03 1.73837468e-02
      3.34637091e-02 2.17296835e-03 2.17296835e-03 8.69187294e-04
      8.69187294e-04 8.69187294e-04 8.69187294e-04 0. 1.30378094e-03
      4.34593647e-04 0. 4.34593647e-04 0. 8.69187294e-04 4.34593647e-04
      8.69187294e-04 4.34593647e-04 1.73837459e-03 0. 4.34593647e-04
      4.34593647e-04 8.69187294e-04 0. 4.34593647e-04 8.69187294e-04
      4.34593670e-03 4.34593647e-04 0. 0. 6.51890459e-03 8.69187294e-04
      6.51890459e-03 9.99565423e-03 8.25727917e-03 1.30378094e-03
      2.60756188e-03 1.30378094e-03 2.60756188e-03 0. 1.30378094e-03
      2.17296835e-03 2.17296835e-03 0. 0. 4.34593647e-04 8.69187294e-04
      0. 8.69187294e-04 2.17296835e-03 1.30378094e-03 0. 0. 0.
      4.34593647e-04 0. 8.69187294e-04 4.34593647e-04 8.69187294e-04 0.
      0. 1.30378094e-03 8.69187294e-04 0. 1.73837459e-03 5.21512376e-03
      1.30378094e-03 2.17296835e-03 4.34593647e-04 1.73837459e-03 0.
      4.34593647e-04 4.34593647e-04 4.34593647e-04 0. 4.34593647e-04
      4.34593647e-04 0. 0. 4.34593647e-04 4.34593647e-04 1.73837459e-03
      1.30378094e-03 8.69187294e-04 8.69187294e-04 4.34593647e-04
      4.34593647e-04 0. 8.69187294e-04 1.30378094e-03 1.73837459e-03
      1.30378094e-03 4.34593647e-04 4.34593647e-04 3.47674917e-03
      4.34593647e-04 7.82268587e-03 6.95349835e-03 7.38809211e-03
      1.04302475e-02 1.73837459e-03 2.08604950e-02 4.34593647e-04
      4.34593670e-03 2.60756188e-03 6.21468909e-02 1.30378094e-03
      8.69187294e-04 0. 8.69187294e-04 0. 4.34593647e-04 1.73837459e-03
      3.34637091e-02 2.17296835e-03 1.30378094e-03 8.69187294e-04
      2.17296835e-03 0. 0. 0. 1.73837459e-03 0. 4.34593647e-04
      4.34593647e-04 8.69187294e-04 8.69187294e-04 8.69187294e-04
      1.30378094e-03 1.99913085e-02 8.69187294e-04 4.34593647e-04 0.
      4.34593647e-04 0. 4.34593647e-04 0. 3.47674917e-03 0.
      4.34593647e-04 0. 4.34593647e-04 0. 8.69187294e-04 0.
      2.60756188e-03 1.30378094e-03 0. 0. 4.34593647e-04 0. 0. 0.
      3.04215541e-03 0. 4.34593647e-04 0. 2.17296835e-03 8.69187294e-04
      4.34593647e-04 4.34593647e-04 1.39069967e-02 7.38809211e-03
      9.99565423e-03 8.69187294e-04 2.60756183e-02 8.69187294e-04 0.
      1.73837459e-03 4.21555825e-02 0. 1.30378094e-03 4.34593647e-04
      3.47674917e-03 4.34593647e-04 8.69187294e-04 2.17296835e-03
      1.86875276e-02 2.60756188e-03 8.69187294e-04 8.69187294e-04
      3.04215541e-03 4.34593647e-04 0. 1.73837459e-03 3.04215541e-03
      2.17296835e-03 0. 4.34593647e-04 8.69187294e-04 4.34593647e-04
      1.73837459e-03 2.60756188e-03 1.30378092e-02 2.60756188e-03
      2.91177742e-02 1.30378094e-03 1.39069967e-02 4.34593647e-04
      2.17296835e-03 8.69187294e-04 1.30378092e-02 8.69187294e-04
      3.91134294e-03 4.34593647e-04 1.30378094e-03 4.34593647e-04
      1.30378094e-03 1.30378094e-03 1.69491526e-02 1.52107775e-02
      1.21686216e-02 3.91134294e-03 7.82268587e-03 4.34593647e-04
      4.34593647e-04 4.34593647e-04 9.12646670e-03 3.47674917e-03
      4.34593670e-03 4.34593647e-04 3.91134294e-03 8.69187294e-04
      2.60756188e-03 1.47761842e-02 5.82355484e-02 2.52064317e-02
      8.69187340e-03 2.60756188e-03 3.91134294e-03 9.56106000e-03
      1.30378094e-03 4.78053000e-03 1.12994350e-02 2.60756188e-03
      1.30378094e-03 4.34593647e-04 0. 3.91134294e-03 1.30378094e-03
      1.08648408e-02 3.73750553e-02 1.08648408e-02 1.30378094e-03
      1.30378094e-03 1.73837459e-03 4.34593647e-04 0. 1.30378094e-03
      8.69187294e-04 5.64971752e-03 4.34593647e-04 8.69187294e-04
      1.30378094e-03 6.51890459e-03 1.30378094e-03 1.30378092e-02
      1.52107775e-02 7.38809211e-03 1.73837459e-03 1.30378094e-03
      1.30378094e-03 8.69187294e-04 4.34593647e-04 0. 1.30378094e-03
      1.30378094e-03 4.34593647e-04 0. 0. 4.34593647e-04 4.34593647e-04
      4.34593647e-04 2.60756188e-03 7.82268587e-03 4.34593647e-04 0. 0.
      3.91134294e-03 4.34593647e-04 8.69187294e-04 2.60756188e-03
      8.69187340e-03 1.30378094e-03 1.30378094e-03 0. 1.39069967e-02
      4.34593647e-04 8.25727917e-03 5.64971752e-03 8.69187340e-03
      1.30378094e-03 4.34593647e-04 1.30378094e-03 4.34593647e-04
      4.34593647e-04 4.34593647e-04 0. 1.30378094e-03 0. 0.
      8.69187294e-04 0. 0. 1.30378094e-03 1.30378094e-03 2.17296835e-03
      0. 0. 0. 4.34593647e-04 0. 0. 4.34593647e-04 2.17296835e-03 0. 0.
      0. 8.69187294e-04 0. 0. 4.34593647e-04 8.69187340e-03
      1.30378094e-03 0. 4.34593647e-04 4.34593647e-04 0. 1.30378094e-03
      2.60756188e-03 4.34593647e-04 1.30378094e-03 4.34593647e-04 0.
      1.73837459e-03 0. 0. 1.30378094e-03 2.95523684e-02 8.69187294e-04
      8.69187294e-04 1.30378094e-03 3.47674917e-03 0. 1.73837459e-03
      1.73837459e-03 4.60669249e-02 1.30378094e-03 2.60756188e-03
      1.73837459e-03 1.17340283e-02 2.17296835e-03 5.64971752e-03
      5.21512376e-03 3.04215541e-03 6.08431082e-03 0. 3.47674917e-03
      1.30378094e-03 4.34593647e-04 8.69187294e-04 1.30378092e-02
      8.69187294e-04 1.73837459e-03 0. 0. 4.34593647e-04 2.17296835e-03
      0. 2.47718375e-02 2.60756188e-03 8.69187294e-04 0. 0.
      4.34593647e-04 4.34593647e-04 0. 8.69187294e-04 1.73837459e-03
      4.34593647e-04 0. 0. 0. 0. 2.17296835e-03 1.21686216e-02
      1.30378094e-03 8.69187294e-04 0. 0. 0. 4.34593647e-04 0.
      1.73837459e-03 0. 0. 0. 0. 0. 4.34593647e-04 0. 1.73837459e-03
      1.30378094e-03 1.30378094e-03 0. 4.34593647e-04 0. 0. 0.
      1.30378094e-03 0. 0. 0. 4.34593647e-04 3.91134294e-03
      2.17296835e-03 8.69187294e-04 8.69187340e-03 3.47674917e-03
      1.30378092e-02 4.34593647e-04 1.30378092e-02 8.69187294e-04
      4.34593647e-04 4.34593647e-04 1.26032159e-02 4.34593647e-04
      8.69187294e-04 0. 2.60756188e-03 1.30378094e-03 2.17296835e-03 0.
      1.21686216e-02 2.60756188e-03 8.69187294e-04 0. 0. 0. 0.
      4.34593647e-04 0. 1.73837459e-03 1.30378094e-03 0. 8.69187294e-04
      2.17296835e-03 4.34593647e-04 4.34593647e-04 8.69187340e-03
      1.69491526e-02 4.91090827e-02 0. 1.69491526e-02 4.34593647e-04
      4.34593647e-04 0. 9.56106000e-03 1.30378094e-03 1.73837459e-03 0.
      2.17296835e-03 0. 3.04215541e-03 1.73837459e-03 1.26032159e-02
      6.73620179e-02 2.60756183e-02 3.91134294e-03 1.17340283e-02
      2.60756188e-03 1.30378094e-03 2.60756188e-03 9.99565423e-03
      2.65102126e-02 1.56453717e-02 8.69187294e-04 1.30378092e-02
      1.47761842e-02 1.04302475e-02 1.08648408e-02 5.25858328e-02
      2.25988701e-02 9.99565423e-03 4.78053000e-03 1.17340283e-02
      6.08431082e-03 1.30378094e-03 8.25727917e-03 1.21686216e-02
      2.17296835e-03 2.60756188e-03 8.69187294e-04 4.34593647e-04
      4.78053000e-03 1.30378094e-03 1.52107775e-02 3.21599282e-02
      1.04302475e-02 1.30378094e-03 8.69187294e-04 4.34593647e-04
      8.69187294e-04 0. 8.69187294e-04 2.17296835e-03 4.34593670e-03
      1.30378094e-03 0. 0. 1.12994350e-02 2.17296835e-03 3.25945243e-02
      2.65102126e-02 3.04215541e-03 2.17296835e-03 4.34593647e-04
      8.69187294e-04 2.17296835e-03 0. 4.34593647e-04 1.30378094e-03 0.
      4.34593647e-04 0. 0. 0. 0. 0. 1.30378094e-03 4.34593670e-03
      8.69187294e-04 0. 8.69187294e-04 1.73837459e-03 0. 1.73837459e-03
      1.73837459e-03 3.04215541e-03 0. 4.34593647e-04 8.69187294e-04
      1.12994350e-02 8.69187294e-04 1.56453717e-02 1.43415900e-02
      7.82268587e-03 8.69187294e-04 8.69187294e-04 1.30378094e-03
      1.30378094e-03 0. 1.30378094e-03 1.30378094e-03 4.34593647e-04
      4.34593647e-04 0. 0. 8.69187294e-04 0. 8.69187294e-04
      4.34593647e-04 4.34593647e-04 0. 0. 0. 0. 0. 0. 0. 8.69187294e-04
      0. 4.34593647e-04 0. 1.30378094e-03 0. 1.30378094e-03
      2.17296835e-03 8.25727917e-03 2.60756188e-03 1.30378094e-03
      3.04215541e-03 0. 0. 0. 8.69187294e-04 4.34593647e-04 0. 0. 0.
      4.34593647e-04 0. 1.30378094e-03 8.69187294e-04 1.65145583e-02
      8.69187294e-04 8.69187294e-04 8.69187294e-04 1.73837459e-03
      4.34593647e-04 0. 2.60756188e-03 8.69187340e-03 4.34593647e-04
      4.34593647e-04 1.30378094e-03 6.95349835e-03 8.69187294e-04
      1.34724034e-02 6.08431082e-03 3.91134294e-03 8.25727917e-03
      4.34593647e-04 1.39069967e-02 1.30378094e-03 8.69187294e-04 0.
      2.04259008e-02 4.34593647e-04 0. 0. 4.34593647e-04 8.69187294e-04
      1.30378094e-03 8.69187294e-04 1.04302475e-02 2.60756188e-03
      4.34593647e-04 4.34593647e-04 1.30378094e-03 0. 0. 4.34593647e-04
      1.30378094e-03 1.30378094e-03 4.34593647e-04 0. 0. 2.17296835e-03
      4.34593647e-04 2.17296835e-03 1.26032159e-02 4.34593647e-04
      4.34593647e-04 0. 1.73837459e-03 0. 4.34593647e-04 0.
      1.73837459e-03 0. 0. 0. 0. 0. 0. 0. 1.73837459e-03 8.69187294e-04
      8.69187294e-04 0. 4.34593647e-04 0. 0. 0. 3.04215541e-03
      8.69187294e-04 4.34593647e-04 0. 8.69187294e-04 1.30378094e-03
      4.34593647e-04 8.69187294e-04 7.82268587e-03 3.91134294e-03
      3.17253359e-02 4.34593647e-04 2.65102126e-02 1.73837459e-03
      1.30378094e-03 4.34593647e-04 1.60799641e-02 0. 1.30378094e-03 0.
      4.34593647e-04 1.30378094e-03 1.73837459e-03 8.69187294e-04
      1.47761842e-02 8.69187294e-04 1.30378094e-03 0. 8.69187294e-04
      4.34593647e-04 4.34593647e-04 4.34593647e-04 1.30378094e-03
      4.34593647e-04 8.69187294e-04 0. 1.30378094e-03 1.73837459e-03
      2.17296835e-03 8.69187294e-04 9.99565423e-03 1.47761842e-02
      4.91090827e-02 1.30378094e-03 3.08561493e-02 4.34593647e-04
      8.69187294e-04 4.34593647e-04 1.39069967e-02 8.69187294e-04
      3.04215541e-03 0. 1.30378094e-03 4.34593647e-04 1.73837459e-03
      3.47674917e-03 1.21686216e-02 2.60756183e-02 2.56410260e-02
      2.17296835e-03 1.26032159e-02 1.30378094e-03 1.73837459e-03
      1.73837459e-03 8.69187340e-03 2.12950893e-02 1.56453717e-02
      4.34593647e-04 1.08648408e-02 1.12994350e-02 9.99565423e-03
      1.56453717e-02 5.38896136e-02</_>
    <_>
      4.60669249e-02 1.30378092e-02 4.78053000e-03 4.78053000e-03
      6.95349835e-03 2.60756188e-03 6.08431082e-03 1.08648408e-02
      9.56106000e-03 1.73837459e-03 1.30378094e-03 1.30378094e-03
      1.26032159e-02 2.60756188e-03 1.82529334e-02 3.30291167e-02
      1.86875276e-02 3.04215541e-03 1.73837459e-03 8.69187294e-04
      1.73837459e-03 0. 4.34593670e-03 1.30378094e-03 1.73837468e-02
      1.30378094e-03 2.17296835e-03 1.30378094e-03 2.25988701e-02
      1.73837459e-03 3.60712744e-02 1.91221200e-02 3.47674917e-03
      3.04215541e-03 8.69187294e-04 1.30378094e-03 8.69187294e-04 0.
      1.30378094e-03 1.73837459e-03 3.04215541e-03 8.69187294e-04 0. 0.
      2.17296835e-03 8.69187294e-04 1.73837459e-03 3.04215541e-03
      9.12646670e-03 2.17296835e-03 0. 4.34593647e-04 1.73837459e-03
      4.34593647e-04 1.30378094e-03 8.69187294e-04 2.17296816e-02
      1.73837459e-03 1.73837459e-03 1.30378094e-03 3.38983051e-02
      3.91134294e-03 2.39026509e-02 8.69187340e-03 9.12646670e-03
      1.30378094e-03 8.69187294e-04 1.73837459e-03 1.30378094e-03 0.
      1.73837459e-03 1.30378094e-03 1.30378094e-03 0. 0. 4.34593647e-04
      1.30378094e-03 4.34593647e-04 8.69187294e-04 8.69187294e-04
      4.34593670e-03 4.34593647e-04 0. 0. 4.34593647e-04 0. 0. 0.
      2.17296835e-03 0. 8.69187294e-04 4.34593647e-04 3.47674917e-03 0.
      2.17296835e-03 4.78053000e-03 3.47674917e-03 2.60756188e-03
      4.34593647e-04 1.30378094e-03 4.34593647e-04 8.69187294e-04
      8.69187294e-04 4.34593647e-04 1.30378094e-03 0. 0. 4.34593647e-04
      4.34593670e-03 0. 1.30378094e-03 2.60756188e-03 7.82268587e-03
      1.30378094e-03 8.69187294e-04 1.73837459e-03 8.69187294e-04 0.
      4.34593647e-04 4.34593647e-04 2.30334625e-02 3.04215541e-03
      3.04215541e-03 4.34593647e-04 2.69448068e-02 2.17296835e-03
      1.34724034e-02 1.39069967e-02 5.64971752e-03 4.78053000e-03 0.
      3.04215541e-03 1.30378094e-03 8.69187294e-04 4.34593647e-04
      3.04215541e-03 0. 8.69187294e-04 0. 4.34593647e-04 0.
      8.69187294e-04 2.60756188e-03 9.56106000e-03 1.30378094e-03
      1.73837459e-03 0. 1.30378094e-03 0. 0. 0. 1.30378094e-03
      1.30378094e-03 0. 0. 1.73837459e-03 8.69187294e-04 8.69187294e-04
      4.78053000e-03 9.56106000e-03 4.34593647e-04 8.69187294e-04 0. 0.
      0. 0. 4.34593647e-04 1.73837459e-03 0. 0. 0. 4.34593647e-04 0. 0.
      0. 3.47674917e-03 0. 4.34593647e-04 4.34593647e-04 4.34593647e-04
      0. 0. 4.34593647e-04 1.73837459e-03 0. 1.73837459e-03 0.
      8.69187294e-04 4.34593647e-04 4.34593647e-04 2.60756188e-03
      1.08648408e-02 5.64971752e-03 6.51890459e-03 0. 3.04215541e-03
      1.30378094e-03 8.69187294e-04 4.34593647e-04 6.95349835e-03 0.
      4.34593647e-04 0. 4.34593647e-04 1.73837459e-03 8.69187294e-04
      8.69187294e-04 9.56106000e-03 3.47674917e-03 4.34593647e-04
      8.69187294e-04 0. 0. 0. 4.34593647e-04 4.34593647e-04 0. 0. 0.
      1.30378094e-03 4.34593647e-04 8.69187294e-04 1.30378094e-03
      6.08431082e-03 9.99565423e-03 9.99565423e-03 4.34593647e-04
      9.12646670e-03 4.34593647e-04 1.73837459e-03 8.69187294e-04
      7.82268587e-03 8.69187294e-04 3.04215541e-03 0. 2.60756188e-03
      2.17296835e-03 3.91134294e-03 1.73837459e-03 1.52107775e-02
      2.39026509e-02 1.73837468e-02 3.91134294e-03 7.82268587e-03
      8.69187294e-04 8.69187294e-04 3.91134294e-03 3.91134294e-03
      8.69187340e-03 8.25727917e-03 4.34593647e-04 9.99565423e-03
      1.34724034e-02 5.21512376e-03 1.95567142e-02 5.34550175e-02
      4.91090827e-02 1.34724034e-02 8.69187340e-03 1.17340283e-02
      1.04302475e-02 1.73837459e-03 1.08648408e-02 3.47674936e-02
      6.51890459e-03 2.60756188e-03 3.04215541e-03 2.17296835e-03
      9.12646670e-03 3.47674917e-03 1.52107775e-02 4.25901785e-02
      9.56106000e-03 2.17296835e-03 4.34593647e-04 8.69187294e-04
      1.73837459e-03 4.34593647e-04 3.04215541e-03 1.73837459e-03
      4.34593670e-03 8.69187294e-04 1.30378094e-03 8.69187294e-04
      5.64971752e-03 8.69187294e-04 1.43415900e-02 1.86875276e-02
      1.73837459e-03 8.69187294e-04 4.34593647e-04 4.34593647e-04
      2.17296835e-03 1.30378094e-03 1.30378094e-03 4.34593647e-04
      1.30378094e-03 0. 0. 4.34593647e-04 1.30378094e-03 0.
      1.73837459e-03 6.08431082e-03 4.34593670e-03 4.34593647e-04
      4.34593647e-04 1.73837459e-03 8.69187294e-04 0. 1.73837459e-03
      3.04215541e-03 3.47674917e-03 8.69187294e-04 1.30378094e-03
      1.73837459e-03 4.34593670e-03 1.73837459e-03 6.51890459e-03
      7.82268587e-03 9.12646670e-03 8.69187294e-04 4.34593670e-03
      8.69187294e-04 1.30378094e-03 4.34593647e-04 2.17296835e-03
      3.04215541e-03 1.30378094e-03 0. 8.69187294e-04 1.30378094e-03
      2.60756188e-03 4.34593647e-04 8.69187294e-04 5.64971752e-03
      8.69187294e-04 0. 8.69187294e-04 4.34593647e-04 0. 0. 0. 0.
      3.04215541e-03 0. 4.34593647e-04 8.69187294e-04 1.30378094e-03 0.
      8.69187294e-04 2.17296835e-03 3.47674917e-03 8.69187294e-04 0.
      1.30378094e-03 2.17296835e-03 4.34593647e-04 4.34593647e-04
      1.30378094e-03 0. 0. 0. 0. 1.30378094e-03 4.34593647e-04
      2.17296835e-03 4.34593647e-04 5.21512376e-03 0. 8.69187294e-04
      1.30378094e-03 8.69187294e-04 0. 1.73837459e-03 1.73837459e-03
      9.56106000e-03 8.69187294e-04 3.04215541e-03 3.47674917e-03
      4.78053000e-03 1.30378094e-03 6.95349835e-03 1.26032159e-02
      1.08648408e-02 6.08431082e-03 2.17296835e-03 1.69491526e-02
      8.69187294e-04 3.47674917e-03 1.73837459e-03 3.95480208e-02
      8.69187294e-04 8.69187294e-04 4.34593647e-04 1.30378094e-03
      1.30378094e-03 2.60756188e-03 3.91134294e-03 3.34637091e-02
      8.69187294e-04 8.69187294e-04 0. 3.47674917e-03 1.73837459e-03 0.
      4.34593647e-04 3.04215541e-03 1.30378094e-03 4.34593647e-04
      4.34593647e-04 4.34593647e-04 1.30378094e-03 1.73837459e-03
      4.78053000e-03 1.43415900e-02 8.69187294e-04 1.73837459e-03 0.
      4.34593647e-04 0. 1.73837459e-03 0. 3.04215541e-03 4.34593647e-04
      8.69187294e-04 0. 0. 4.34593647e-04 0. 4.34593647e-04
      5.64971752e-03 4.34593647e-04 4.34593647e-04 4.34593647e-04
      1.30378094e-03 4.34593647e-04 0. 4.34593647e-04 1.30378094e-03 0.
      1.73837459e-03 4.34593647e-04 2.17296835e-03 8.69187294e-04
      8.69187294e-04 1.30378094e-03 1.47761842e-02 5.64971752e-03
      9.99565423e-03 4.34593647e-04 1.47761842e-02 4.34593647e-04 0.
      1.30378094e-03 1.73837468e-02 4.34593647e-04 1.30378094e-03
      4.34593647e-04 2.17296835e-03 8.69187294e-04 8.69187294e-04
      2.60756188e-03 1.39069967e-02 1.30378094e-03 0. 8.69187294e-04
      2.60756188e-03 4.34593647e-04 4.34593647e-04 0. 3.04215541e-03
      1.73837459e-03 1.73837459e-03 8.69187294e-04 1.73837459e-03
      1.73837459e-03 1.30378094e-03 1.73837459e-03 1.47761842e-02
      9.99565423e-03 1.52107775e-02 2.17296835e-03 1.04302475e-02 0.
      1.73837459e-03 1.30378094e-03 7.82268587e-03 4.34593647e-04
      1.73837459e-03 8.69187294e-04 1.73837459e-03 8.69187294e-04
      8.69187294e-04 3.04215541e-03 1.30378092e-02 1.17340283e-02
      1.21686216e-02 1.30378094e-03 7.82268587e-03 0. 1.30378094e-03
      2.60756188e-03 9.99565423e-03 5.21512376e-03 2.17296835e-03
      3.04215541e-03 1.04302475e-02 5.21512376e-03 3.04215541e-03
      9.99565423e-03 6.43198565e-02 3.38983051e-02 9.99565423e-03
      3.47674917e-03 5.21512376e-03 1.30378092e-02 1.73837459e-03
      3.91134294e-03 1.12994350e-02 5.21512376e-03 1.30378094e-03 0.
      8.69187294e-04 3.91134294e-03 1.30378094e-03 1.04302475e-02
      2.21642759e-02 1.47761842e-02 2.60756188e-03 4.34593647e-04
      4.34593647e-04 1.73837459e-03 0. 8.69187294e-04 0. 6.95349835e-03
      1.30378094e-03 4.34593647e-04 1.30378094e-03 1.21686216e-02
      4.34593647e-04 6.95349835e-03 9.56106000e-03 7.82268587e-03
      1.30378094e-03 0. 4.34593647e-04 2.17296835e-03 0. 4.34593647e-04
      4.34593647e-04 2.60756188e-03 4.34593647e-04 0. 0. 8.69187294e-04
      0. 8.69187294e-04 3.04215541e-03 6.51890459e-03 2.60756188e-03 0.
      4.34593647e-04 1.30378094e-03 4.34593647e-04 1.30378094e-03
      8.69187294e-04 1.21686216e-02 1.73837459e-03 1.30378094e-03
      4.34593647e-04 1.91221200e-02 8.69187294e-04 1.26032159e-02
      6.95349835e-03 9.99565423e-03 8.69187294e-04 4.34593647e-04
      4.34593647e-04 4.34593670e-03 0. 3.47674917e-03 8.69187294e-04
      4.34593670e-03 0. 0. 0. 2.17296835e-03 0. 0. 1.73837459e-03
      3.47674917e-03 0. 1.30378094e-03 0. 8.69187294e-04 0.
      4.34593647e-04 4.34593647e-04 2.17296835e-03 0. 8.69187294e-04 0.
      0. 0. 4.34593647e-04 4.34593647e-04 1.08648408e-02 1.73837459e-03
      1.73837459e-03 4.34593647e-04 3.47674917e-03 4.34593647e-04
      8.69187294e-04 3.04215541e-03 1.73837459e-03 8.69187294e-04 0.
      4.34593647e-04 1.30378094e-03 0. 0. 1.73837459e-03 2.12950893e-02
      1.73837459e-03 8.69187294e-04 8.69187294e-04 2.17296835e-03 0.
      1.73837459e-03 2.60756188e-03 2.69448068e-02 2.17296835e-03
      6.51890459e-03 3.91134294e-03 1.86875276e-02 1.30378094e-03
      8.69187340e-03 1.34724034e-02 6.51890459e-03 8.25727917e-03
      8.69187294e-04 6.95349835e-03 1.30378094e-03 3.91134294e-03
      8.69187294e-04 2.25988701e-02 8.69187294e-04 4.34593647e-04 0.
      8.69187294e-04 1.30378094e-03 2.60756188e-03 4.34593647e-04
      9.99565423e-03 4.34593647e-04 4.34593647e-04 0. 4.34593647e-04 0.
      0. 0. 8.69187294e-04 1.73837459e-03 0. 0. 1.30378094e-03
      8.69187294e-04 8.69187294e-04 1.30378094e-03 8.25727917e-03
      1.30378094e-03 0. 0. 8.69187294e-04 8.69187294e-04 0. 0.
      4.78053000e-03 0. 0. 0. 0. 4.34593647e-04 4.34593647e-04 0.
      1.73837459e-03 0. 4.34593647e-04 0. 4.34593647e-04 8.69187294e-04
      4.34593647e-04 0. 3.04215541e-03 1.30378094e-03 2.60756188e-03 0.
      2.17296835e-03 3.47674917e-03 2.17296835e-03 0. 1.65145583e-02
      4.78053000e-03 1.30378092e-02 4.34593647e-04 1.26032159e-02
      4.34593647e-04 0. 0. 9.99565423e-03 1.30378094e-03 4.34593647e-04
      0. 1.73837459e-03 0. 8.69187294e-04 4.34593647e-04 6.51890459e-03
      2.60756188e-03 4.34593647e-04 8.69187294e-04 1.73837459e-03
      4.34593647e-04 0. 0. 2.60756188e-03 2.17296835e-03 1.30378094e-03
      4.34593647e-04 3.04215541e-03 1.30378094e-03 4.34593647e-04
      1.73837459e-03 7.82268587e-03 1.73837468e-02 3.21599282e-02
      1.30378094e-03 1.04302475e-02 0. 8.69187294e-04 1.73837459e-03
      8.25727917e-03 1.73837459e-03 1.30378094e-03 0. 1.73837459e-03 0.
      1.73837459e-03 8.69187294e-04 1.39069967e-02 3.43328975e-02
      2.34680567e-02 6.51890459e-03 7.82268587e-03 3.04215541e-03
      1.73837459e-03 2.17296835e-03 1.04302475e-02 1.99913085e-02
      1.30378092e-02 2.60756188e-03 1.39069967e-02 1.12994350e-02
      1.12994350e-02 1.26032159e-02 6.69274181e-02 5.47587983e-02
      1.47761842e-02 5.64971752e-03 7.82268587e-03 1.43415900e-02
      8.69187294e-04 5.64971752e-03 8.25727917e-03 3.04215541e-03
      2.17296835e-03 8.69187294e-04 4.34593647e-04 3.47674917e-03
      1.73837459e-03 4.34593670e-03 9.12646670e-03 1.47761842e-02
      2.60756188e-03 8.69187294e-04 8.69187294e-04 2.17296835e-03 0.
      1.73837459e-03 8.69187294e-04 6.51890459e-03 1.30378094e-03
      4.34593647e-04 1.30378094e-03 5.64971752e-03 8.69187294e-04
      8.69187340e-03 9.56106000e-03 6.95349835e-03 1.73837459e-03
      2.17296835e-03 1.73837459e-03 3.47674917e-03 4.34593647e-04
      1.30378094e-03 1.73837459e-03 1.30378094e-03 8.69187294e-04
      4.34593647e-04 0. 8.69187294e-04 4.34593647e-04 4.34593647e-04
      4.34593647e-04 7.38809211e-03 2.60756188e-03 8.69187294e-04
      2.60756188e-03 4.78053000e-03 0. 4.34593647e-04 1.30378094e-03
      7.38809211e-03 1.73837459e-03 4.34593647e-04 8.69187294e-04
      1.86875276e-02 3.47674917e-03 9.99565423e-03 7.38809211e-03
      1.39069967e-02 2.17296835e-03 2.60756188e-03 2.60756188e-03
      6.51890459e-03 0. 4.34593647e-04 4.34593647e-04 2.60756188e-03
      8.69187294e-04 0. 1.73837459e-03 1.73837459e-03 0. 1.30378094e-03
      8.69187294e-04 3.91134294e-03 0. 4.34593647e-04 4.34593647e-04
      4.34593647e-04 0. 0. 0. 1.30378094e-03 4.34593647e-04
      8.69187294e-04 0. 4.34593647e-04 0. 8.69187294e-04 8.69187294e-04
      9.99565423e-03 3.47674917e-03 1.73837459e-03 1.73837459e-03
      1.73837459e-03 1.30378094e-03 8.69187294e-04 1.30378094e-03
      2.17296835e-03 0. 4.34593647e-04 8.69187294e-04 2.17296835e-03
      8.69187294e-04 1.30378094e-03 2.17296835e-03 9.12646670e-03
      8.69187294e-04 4.34593647e-04 8.69187294e-04 1.30378094e-03 0.
      8.69187294e-04 0. 2.65102126e-02 1.73837459e-03 3.47674917e-03
      2.17296835e-03 7.82268587e-03 2.17296835e-03 1.26032159e-02
      7.82268587e-03 6.08431082e-03 7.38809211e-03 1.73837459e-03
      8.25727917e-03 0. 2.17296835e-03 8.69187294e-04 1.17340283e-02
      4.34593647e-04 8.69187294e-04 0. 1.73837459e-03 2.17296835e-03
      1.73837459e-03 4.34593647e-04 5.21512376e-03 2.60756188e-03
      2.17296835e-03 0. 1.30378094e-03 8.69187294e-04 0. 0.
      2.60756188e-03 2.17296835e-03 1.73837459e-03 8.69187294e-04 0.
      1.73837459e-03 2.60756188e-03 1.73837459e-03 6.08431082e-03
      1.73837459e-03 4.34593647e-04 0. 2.17296835e-03 0. 4.34593647e-04
      0. 1.30378094e-03 0. 0. 0. 4.34593647e-04 0. 0. 0. 1.73837459e-03
      8.69187294e-04 1.30378094e-03 4.34593647e-04 1.73837459e-03 0.
      8.69187294e-04 0. 1.73837459e-03 4.34593647e-04 1.73837459e-03 0.
      2.60756188e-03 2.60756188e-03 3.04215541e-03 3.47674917e-03
      1.56453717e-02 6.08431082e-03 1.52107775e-02 4.34593647e-04
      1.60799641e-02 2.17296835e-03 2.60756188e-03 2.60756188e-03
      1.39069967e-02 1.73837459e-03 2.60756188e-03 0. 3.47674917e-03
      8.69187294e-04 2.60756188e-03 1.73837459e-03 5.64971752e-03
      2.60756188e-03 1.30378094e-03 1.30378094e-03 1.30378094e-03
      4.34593647e-04 8.69187294e-04 8.69187294e-04 1.30378094e-03
      1.73837459e-03 4.34593647e-04 4.34593647e-04 3.91134294e-03
      4.34593647e-04 4.34593647e-04 8.69187294e-04 5.64971752e-03
      1.26032159e-02 2.52064317e-02 4.34593647e-04 9.12646670e-03
      2.17296835e-03 4.34593647e-04 1.73837459e-03 1.12994350e-02
      2.17296835e-03 2.60756188e-03 4.34593647e-04 2.60756188e-03
      1.30378094e-03 3.04215541e-03 8.69187294e-04 1.60799641e-02
      1.82529334e-02 1.60799641e-02 2.17296835e-03 8.69187340e-03
      1.30378094e-03 2.17296835e-03 3.47674917e-03 1.08648408e-02
      9.56106000e-03 1.30378092e-02 2.17296835e-03 2.34680567e-02
      1.43415900e-02 1.21686216e-02 1.86875276e-02 7.99652338e-02</_>
    <_>
      2.25988701e-02 9.56106000e-03 1.30378094e-03 6.95349835e-03
      6.08431082e-03 8.69187294e-04 9.12646670e-03 1.21686216e-02
      3.04215541e-03 4.34593647e-04 0. 0. 8.25727917e-03 8.69187294e-04
      7.82268587e-03 3.43328975e-02 4.34593670e-03 1.30378094e-03
      1.73837459e-03 4.34593647e-04 1.30378094e-03 4.34593647e-04
      1.73837459e-03 8.69187294e-04 5.64971752e-03 8.69187294e-04
      8.69187294e-04 4.34593647e-04 1.95567142e-02 4.34593647e-04
      4.43285517e-02 1.95567142e-02 2.60756188e-03 1.30378094e-03
      1.30378094e-03 8.69187294e-04 1.30378094e-03 0. 0. 1.30378094e-03
      0. 0. 0. 0. 4.34593647e-04 0. 4.34593647e-04 4.34593647e-04
      5.21512376e-03 0. 4.34593647e-04 0. 0. 4.34593647e-04
      1.73837459e-03 1.73837459e-03 1.17340283e-02 1.73837459e-03
      8.69187294e-04 0. 3.25945243e-02 0. 2.17296816e-02 1.08648408e-02
      6.08431082e-03 8.69187294e-04 1.30378094e-03 1.30378094e-03
      1.30378094e-03 4.34593647e-04 4.34593647e-04 1.30378094e-03
      4.34593647e-04 0. 0. 0. 1.73837459e-03 0. 8.69187294e-04
      4.34593647e-04 8.69187294e-04 4.34593647e-04 0. 0. 8.69187294e-04
      0. 0. 0. 3.04215541e-03 0. 0. 0. 1.30378094e-03 0. 8.69187294e-04
      4.34593647e-04 3.91134294e-03 1.73837459e-03 8.69187294e-04
      2.60756188e-03 1.30378094e-03 0. 4.34593647e-04 1.30378094e-03 0.
      0. 0. 0. 1.73837459e-03 4.34593647e-04 8.69187294e-04
      1.30378094e-03 1.73837468e-02 1.73837459e-03 8.69187294e-04
      1.30378094e-03 1.73837459e-03 0. 2.60756188e-03 0. 2.43372433e-02
      8.69187294e-04 8.69187294e-04 1.30378094e-03 2.30334625e-02
      4.34593647e-04 9.12646670e-03 4.34593670e-03 1.73837459e-03
      7.38809211e-03 0. 1.04302475e-02 0. 1.73837459e-03 0.
      1.78183392e-02 0. 0. 0. 8.69187294e-04 4.34593647e-04
      2.17296835e-03 4.34593647e-04 1.73837468e-02 8.69187294e-04
      8.69187294e-04 0. 8.69187294e-04 0. 0. 0. 0. 1.30378094e-03
      4.34593647e-04 0. 4.34593647e-04 8.69187294e-04 0. 8.69187294e-04
      9.12646670e-03 0. 0. 0. 8.69187294e-04 0. 0. 0. 2.17296835e-03 0.
      4.34593647e-04 0. 0. 0. 0. 4.34593647e-04 4.34593647e-04 0. 0. 0.
      1.30378094e-03 0. 0. 0. 1.73837459e-03 0. 8.69187294e-04 0.
      8.69187294e-04 0. 1.73837459e-03 8.69187294e-04 7.38809211e-03
      6.08431082e-03 1.78183392e-02 0. 1.82529334e-02 2.17296835e-03
      1.73837459e-03 8.69187294e-04 1.99913085e-02 4.34593647e-04
      1.30378094e-03 0. 1.30378094e-03 8.69187294e-04 8.69187294e-04
      4.34593647e-04 7.38809211e-03 8.69187294e-04 4.34593647e-04 0. 0.
      0. 0. 4.34593647e-04 8.69187294e-04 0. 1.73837459e-03 0.
      4.34593647e-04 8.69187294e-04 8.69187294e-04 4.34593647e-04
      4.34593670e-03 1.60799641e-02 6.77966103e-02 0. 2.52064317e-02
      1.30378094e-03 8.69187294e-04 1.30378094e-03 1.04302475e-02
      4.34593647e-04 1.73837459e-03 0. 4.34593647e-04 4.34593647e-04
      1.30378094e-03 4.34593647e-04 1.30378092e-02 4.65015210e-02
      3.12907435e-02 4.34593647e-04 9.56106000e-03 4.34593647e-04
      4.34593647e-04 8.69187294e-04 3.47674917e-03 2.30334625e-02
      1.21686216e-02 8.69187294e-04 1.04302475e-02 1.30378092e-02
      6.08431082e-03 9.12646670e-03 4.82398942e-02 9.56106000e-03
      6.95349835e-03 3.91134294e-03 9.56106000e-03 4.34593647e-04
      4.34593647e-04 9.56106000e-03 3.95480208e-02 4.34593647e-04
      4.34593647e-04 0. 0. 1.73837459e-03 8.69187294e-04 1.69491526e-02
      8.17036033e-02 7.82268587e-03 3.47674917e-03 4.34593647e-04
      8.69187294e-04 4.34593647e-04 4.34593647e-04 8.69187294e-04
      2.17296835e-03 4.78053000e-03 8.69187294e-04 0. 0. 1.08648408e-02
      4.34593647e-04 5.99739216e-02 3.86788361e-02 4.34593647e-04
      4.34593647e-04 0. 0. 0. 0. 0. 0. 4.34593647e-04 0. 0.
      4.34593647e-04 4.34593647e-04 0. 4.34593647e-04 0. 1.73837459e-03
      4.34593647e-04 0. 8.69187294e-04 4.34593647e-04 0. 0.
      4.34593647e-04 2.17296835e-03 4.34593647e-04 0. 4.34593647e-04
      3.91134294e-03 0. 1.21686216e-02 6.08431082e-03 4.34593647e-04
      8.69187294e-04 8.69187294e-04 8.69187294e-04 0. 4.34593647e-04 0.
      8.69187294e-04 0. 0. 0. 0. 0. 0. 4.34593647e-04 1.30378094e-03 0.
      0. 0. 0. 0. 0. 0. 0. 0. 0. 0. 0. 4.34593647e-04 0. 0.
      4.34593647e-04 1.73837459e-03 4.34593647e-04 0. 4.34593647e-04
      4.34593647e-04 0. 0. 0. 0. 0. 0. 0. 0. 0. 4.34593647e-04
      4.34593647e-04 4.78053000e-03 0. 0. 4.34593647e-04 0. 0. 0.
      4.34593647e-04 2.60756188e-03 0. 0. 4.34593647e-04 4.34593670e-03
      0. 3.47674917e-03 1.30378094e-03 2.17296835e-03 9.12646670e-03 0.
      2.43372433e-02 4.34593647e-04 1.30378094e-03 0. 9.03954804e-02 0.
      8.69187294e-04 0. 4.34593647e-04 0. 4.34593647e-04 0.
      4.43285517e-02 0. 4.34593647e-04 0. 4.34593647e-04 0. 0. 0.
      1.30378094e-03 0. 4.34593647e-04 0. 4.34593647e-04 4.34593647e-04
      0. 1.30378094e-03 1.12994350e-02 0. 8.69187294e-04 0.
      8.69187294e-04 0. 0. 0. 8.69187294e-04 0. 0. 0. 0. 0. 0. 0. 0. 0.
      1.30378094e-03 0. 4.34593647e-04 0. 0. 0. 4.34593647e-04 0. 0. 0.
      0. 4.34593647e-04 0. 4.34593647e-04 3.47674917e-03 2.60756188e-03
      2.12950893e-02 0. 5.25858328e-02 0. 1.73837459e-03 1.30378094e-03
      4.73707058e-02 0. 4.34593647e-04 0. 4.34593647e-04 8.69187294e-04
      8.69187294e-04 1.30378094e-03 1.43415900e-02 2.17296835e-03
      1.30378094e-03 0. 8.69187294e-04 0. 0. 0. 8.69187294e-04 0. 0. 0.
      8.69187294e-04 1.30378094e-03 8.69187294e-04 0. 6.51890459e-03
      1.17340283e-02 7.43155107e-02 4.34593647e-04 2.69448068e-02 0.
      4.34593647e-04 8.69187294e-04 1.39069967e-02 0. 4.34593647e-04 0.
      4.34593647e-04 8.69187294e-04 0. 0. 1.04302475e-02 3.17253359e-02
      2.39026509e-02 1.30378094e-03 6.08431082e-03 4.34593647e-04 0.
      4.34593647e-04 5.64971752e-03 5.21512376e-03 5.64971752e-03 0.
      3.04215541e-03 3.47674917e-03 2.60756188e-03 6.95349835e-03
      2.91177742e-02 1.99913085e-02 7.38809211e-03 1.30378094e-03
      4.34593670e-03 6.95349835e-03 4.34593647e-04 4.34593670e-03
      1.08648408e-02 2.17296835e-03 1.30378094e-03 0. 0. 9.99565423e-03
      1.30378094e-03 1.04302475e-02 4.95436750e-02 8.69187340e-03
      1.73837459e-03 4.34593647e-04 4.34593647e-04 4.34593647e-04 0.
      8.69187294e-04 8.69187294e-04 8.69187340e-03 4.34593647e-04 0.
      4.34593647e-04 1.78183392e-02 0. 2.56410260e-02 1.47761842e-02
      2.17296835e-03 2.17296835e-03 4.34593647e-04 0. 1.30378094e-03 0.
      0. 8.69187294e-04 0. 0. 0. 0. 4.34593647e-04 0. 1.30378094e-03
      8.69187294e-04 6.08431082e-03 4.34593647e-04 0. 4.34593647e-04 0.
      0. 8.69187294e-04 8.69187294e-04 1.08648408e-02 8.69187294e-04
      4.34593647e-04 8.69187294e-04 4.60669249e-02 0. 1.43415900e-02
      1.04302475e-02 6.51890459e-03 0. 0. 4.34593647e-04 2.17296835e-03
      0. 1.30378094e-03 4.34593647e-04 1.73837459e-03 0. 0. 0.
      4.34593647e-04 0. 8.69187294e-04 4.34593647e-04 8.69187294e-04 0.
      0. 0. 0. 0. 0. 0. 3.47674917e-03 0. 0. 0. 4.34593647e-04 0.
      8.69187294e-04 0. 4.34593670e-03 1.30378094e-03 4.34593647e-04
      2.17296835e-03 0. 0. 0. 1.73837459e-03 4.34593647e-04 0. 0. 0.
      8.69187294e-04 0. 8.69187294e-04 8.69187294e-04 2.43372433e-02
      1.30378094e-03 2.17296835e-03 8.69187294e-04 8.69187294e-04 0.
      8.69187294e-04 8.69187294e-04 3.91134284e-02 1.30378094e-03
      2.60756188e-03 1.73837459e-03 1.34724034e-02 0. 9.99565423e-03
      7.82268587e-03 2.60756188e-03 5.21512376e-03 0. 4.34593670e-03
      3.04215541e-03 2.60756188e-03 0. 4.34593633e-02 8.69187294e-04
      8.69187294e-04 0. 4.34593647e-04 1.30378094e-03 2.60756188e-03
      4.34593647e-04 2.21642759e-02 0. 4.34593647e-04 0. 0. 0. 0. 0.
      4.34593647e-04 4.34593647e-04 8.69187294e-04 0. 8.69187294e-04
      1.30378094e-03 2.17296835e-03 8.69187294e-04 2.17296835e-03 0. 0.
      0. 0. 0. 0. 4.34593647e-04 4.34593647e-04 0. 4.34593647e-04 0. 0.
      0. 0. 0. 8.69187294e-04 0. 8.69187294e-04 0. 8.69187294e-04 0.
      4.34593647e-04 0. 8.69187294e-04 0. 4.34593647e-04 0.
      4.34593647e-04 2.17296835e-03 8.69187294e-04 4.34593647e-04
      6.51890459e-03 7.38809211e-03 1.56453717e-02 0. 3.08561493e-02
      4.34593647e-04 1.30378094e-03 4.34593647e-04 1.26032159e-02
      8.69187294e-04 8.69187294e-04 0. 0. 0. 1.30378094e-03 0.
      4.78053000e-03 8.69187294e-04 4.34593647e-04 0. 0. 0. 0. 0.
      4.34593647e-04 2.17296835e-03 0. 4.34593647e-04 8.69187294e-04
      2.17296835e-03 4.34593647e-04 4.34593647e-04 3.04215541e-03
      2.34680567e-02 7.38809183e-02 1.73837459e-03 2.82485876e-02
      8.69187294e-04 8.69187294e-04 8.69187294e-04 1.04302475e-02
      4.34593647e-04 0. 4.34593647e-04 1.30378094e-03 4.34593647e-04
      8.69187294e-04 4.34593647e-04 1.30378092e-02 3.86788361e-02
      2.56410260e-02 2.17296835e-03 1.12994350e-02 4.34593647e-04 0.
      8.69187294e-04 4.78053000e-03 1.95567142e-02 9.56106000e-03
      1.73837459e-03 1.12994350e-02 9.12646670e-03 5.64971752e-03
      9.56106000e-03 3.47674936e-02 1.08648408e-02 7.82268587e-03
      1.30378094e-03 1.34724034e-02 3.04215541e-03 0. 8.69187340e-03
      2.25988701e-02 0. 0. 0. 4.34593647e-04 2.17296835e-03 0.
      1.34724034e-02 3.91134284e-02 3.04215541e-03 4.34593647e-04
      4.34593647e-04 8.69187294e-04 1.30378094e-03 0. 2.17296835e-03 0.
      8.69187294e-04 4.34593647e-04 0. 4.34593647e-04 1.52107775e-02
      1.30378094e-03 4.69361134e-02 2.60756183e-02 1.73837459e-03 0.
      8.69187294e-04 4.34593647e-04 4.34593647e-04 0. 4.34593647e-04 0.
      0. 0. 0. 0. 4.34593647e-04 0. 0. 8.69187294e-04 9.12646670e-03
      1.30378094e-03 4.34593647e-04 0. 1.30378094e-03 0. 0. 0.
      1.04302475e-02 4.34593647e-04 4.34593647e-04 0. 4.04172093e-02 0.
      1.82529334e-02 6.51890459e-03 4.78053000e-03 8.69187294e-04
      4.34593647e-04 2.17296835e-03 1.73837459e-03 0. 4.34593647e-04
      1.30378094e-03 0. 0. 0. 4.34593647e-04 4.34593647e-04 0. 0. 0.
      4.34593647e-04 0. 0. 0. 0. 0. 0. 0. 4.34593647e-04 0. 0. 0.
      8.69187294e-04 0. 4.34593647e-04 4.34593647e-04 3.91134294e-03
      4.34593647e-04 4.34593647e-04 1.73837459e-03 4.34593647e-04 0.
      8.69187294e-04 8.69187294e-04 0. 0. 0. 0. 0. 0. 0. 4.34593647e-04
      1.56453717e-02 4.34593647e-04 1.30378094e-03 4.34593647e-04
      8.69187294e-04 0. 4.34593647e-04 8.69187294e-04 2.99869608e-02
      4.34593647e-04 0. 0. 1.52107775e-02 0. 3.91134294e-03
      8.69187294e-04 1.73837459e-03 7.82268587e-03 4.34593647e-04
      1.95567142e-02 8.69187294e-04 0. 0. 3.78096476e-02 0. 0. 0.
      8.69187294e-04 0. 0. 8.69187294e-04 1.95567142e-02 0. 0. 0.
      8.69187294e-04 0. 0. 0. 8.69187294e-04 0. 4.34593647e-04 0. 0.
      4.34593647e-04 4.34593647e-04 1.73837459e-03 9.12646670e-03 0. 0.
      0. 4.34593647e-04 0. 4.34593647e-04 0. 0. 0. 0. 0. 0.
      4.34593647e-04 0. 0. 0. 0. 0. 0. 0. 0. 0. 0. 0. 0. 0. 0.
      8.69187294e-04 1.30378094e-03 4.34593647e-04 8.69187294e-04
      9.12646670e-03 4.34593670e-03 2.91177742e-02 4.34593647e-04
      8.17036033e-02 4.34593647e-04 0. 4.34593647e-04 2.30334625e-02 0.
      2.17296835e-03 0. 1.73837459e-03 4.34593647e-04 4.34593647e-04
      1.30378094e-03 1.47761842e-02 4.34593647e-04 1.73837459e-03 0. 0.
      0. 4.34593647e-04 0. 0. 4.34593647e-04 8.69187294e-04 0.
      4.34593647e-04 0. 0. 4.34593647e-04 6.08431082e-03 1.21686216e-02
      8.43111649e-02 4.34593647e-04 2.34680567e-02 4.34593647e-04
      8.69187294e-04 0. 9.56106000e-03 0. 0. 0. 1.30378094e-03
      1.30378094e-03 1.30378094e-03 8.69187294e-04 9.56106000e-03
      4.38939594e-02 2.08604950e-02 1.73837459e-03 5.64971752e-03
      8.69187294e-04 0. 4.34593647e-04 2.17296835e-03 1.43415900e-02
      7.82268587e-03 4.34593647e-04 7.82268587e-03 6.95349835e-03
      4.34593670e-03 7.38809211e-03 2.99869608e-02</_>
    <_>
      4.21555825e-02 9.56106000e-03 3.91134294e-03 9.12646670e-03
      8.69187340e-03 0. 1.17340283e-02 2.17296816e-02 6.95349835e-03
      1.30378094e-03 4.34593647e-04 8.69187294e-04 1.12994350e-02
      1.73837459e-03 1.60799641e-02 2.91177742e-02 8.69187340e-03
      1.73837459e-03 1.30378094e-03 4.34593647e-04 8.69187294e-04 0.
      8.69187294e-04 1.30378094e-03 4.78053000e-03 0. 8.69187294e-04
      4.34593647e-04 1.73837468e-02 1.73837459e-03 3.30291167e-02
      1.99913085e-02 5.21512376e-03 1.73837459e-03 2.17296835e-03
      4.34593647e-04 8.69187294e-04 0. 4.34593647e-04 0. 1.73837459e-03
      0. 4.34593647e-04 0. 4.34593647e-04 0. 1.30378094e-03
      3.04215541e-03 7.38809211e-03 1.30378094e-03 1.73837459e-03
      8.69187294e-04 5.64971752e-03 0. 1.73837459e-03 1.73837459e-03
      8.69187340e-03 0. 1.30378094e-03 1.73837459e-03 3.04215550e-02
      1.30378094e-03 1.95567142e-02 9.56106000e-03 1.26032159e-02
      3.04215541e-03 3.91134294e-03 1.73837459e-03 3.04215541e-03
      4.34593647e-04 1.30378094e-03 1.73837459e-03 1.73837459e-03 0. 0.
      0. 4.34593647e-04 0. 0. 2.17296835e-03 8.69187294e-04 0.
      4.34593647e-04 0. 4.34593647e-04 0. 0. 0. 3.04215541e-03 0.
      8.69187294e-04 0. 1.73837459e-03 4.34593647e-04 1.30378094e-03
      1.30378094e-03 6.08431082e-03 2.60756188e-03 1.73837459e-03
      1.30378094e-03 4.34593647e-04 0. 4.34593647e-04 4.34593647e-04
      2.17296835e-03 4.34593647e-04 0. 0. 1.73837459e-03 0.
      8.69187294e-04 2.60756188e-03 6.51890459e-03 0. 1.30378094e-03
      4.34593647e-04 4.34593647e-04 0. 8.69187294e-04 4.34593647e-04
      1.60799641e-02 1.73837459e-03 3.04215541e-03 1.30378094e-03
      1.17340283e-02 3.04215541e-03 7.38809211e-03 9.12646670e-03
      3.04215541e-03 6.08431082e-03 4.34593647e-04 1.91221200e-02
      8.69187294e-04 2.60756188e-03 1.30378094e-03 4.47631441e-02
      8.69187294e-04 4.34593647e-04 0. 1.73837459e-03 8.69187294e-04
      1.73837459e-03 8.69187294e-04 1.82529334e-02 1.30378094e-03
      8.69187294e-04 0. 4.34593647e-04 4.34593647e-04 0. 0.
      8.69187294e-04 0. 8.69187294e-04 0. 8.69187294e-04 3.04215541e-03
      2.17296835e-03 4.34593670e-03 1.30378092e-02 4.34593647e-04 0.
      8.69187294e-04 4.34593647e-04 0. 0. 8.69187294e-04 8.69187294e-04
      4.34593647e-04 0. 0. 0. 0. 0. 0. 2.17296835e-03 8.69187294e-04 0.
      0. 4.34593647e-04 0. 0. 0. 1.73837459e-03 1.73837459e-03
      4.34593647e-04 0. 2.60756188e-03 6.08431082e-03 4.34593647e-04
      2.17296835e-03 1.78183392e-02 5.21512376e-03 1.21686216e-02 0.
      3.99826169e-02 1.30378094e-03 4.34593647e-04 8.69187294e-04
      2.08604950e-02 4.34593647e-04 4.34593647e-04 0. 3.04215541e-03
      4.34593647e-04 1.30378094e-03 1.30378094e-03 7.82268587e-03
      4.34593647e-04 4.34593647e-04 4.34593647e-04 4.34593647e-04
      4.34593647e-04 4.34593647e-04 0. 8.69187294e-04 4.34593647e-04 0.
      0. 3.04215541e-03 8.69187294e-04 8.69187294e-04 1.30378094e-03
      1.17340283e-02 7.38809211e-03 2.65102126e-02 4.34593647e-04
      1.17340283e-02 2.17296835e-03 4.34593647e-04 0. 8.69187340e-03 0.
      2.17296835e-03 0. 1.73837459e-03 4.34593647e-04 3.47674917e-03 0.
      9.56106000e-03 1.43415900e-02 1.30378092e-02 8.69187294e-04
      5.64971752e-03 8.69187294e-04 8.69187294e-04 2.17296835e-03
      4.78053000e-03 1.04302475e-02 6.08431082e-03 4.34593647e-04
      6.08431082e-03 5.64971752e-03 9.12646670e-03 9.12646670e-03
      4.08518016e-02 5.12820520e-02 1.43415900e-02 6.51890459e-03
      1.30378092e-02 1.78183392e-02 1.73837459e-03 9.99565423e-03
      1.47761842e-02 1.34724034e-02 1.30378094e-03 1.30378094e-03
      1.30378094e-03 1.12994350e-02 2.60756188e-03 1.04302475e-02
      1.69491526e-02 8.69187340e-03 1.30378094e-03 1.73837459e-03
      8.69187294e-04 3.47674917e-03 0. 1.73837459e-03 1.73837459e-03
      6.95349835e-03 1.30378094e-03 4.34593647e-04 1.73837459e-03
      1.34724034e-02 1.30378094e-03 2.30334625e-02 1.43415900e-02
      3.91134294e-03 1.30378094e-03 8.69187294e-04 8.69187294e-04
      2.60756188e-03 8.69187294e-04 1.73837459e-03 1.73837459e-03
      4.34593647e-04 0. 8.69187294e-04 0. 4.34593647e-04 4.34593647e-04
      1.73837459e-03 4.78053000e-03 4.78053000e-03 4.34593647e-04
      1.73837459e-03 0. 2.60756188e-03 0. 3.04215541e-03 2.17296835e-03
      4.34593670e-03 4.34593647e-04 1.73837459e-03 1.30378094e-03
      2.12950893e-02 4.34593647e-04 1.78183392e-02 1.21686216e-02
      9.56106000e-03 1.73837459e-03 2.60756188e-03 3.47674917e-03
      8.69187294e-04 0. 1.30378094e-03 8.69187294e-04 1.73837459e-03 0.
      0. 1.30378094e-03 2.60756188e-03 8.69187294e-04 2.17296835e-03
      3.04215541e-03 1.30378094e-03 4.34593647e-04 8.69187294e-04 0.
      4.34593647e-04 0. 0. 4.34593647e-04 6.08431082e-03 0.
      8.69187294e-04 0. 8.69187294e-04 0. 2.60756188e-03 2.17296835e-03
      4.78053000e-03 3.91134294e-03 8.69187294e-04 4.34593647e-04
      8.69187294e-04 0. 1.30378094e-03 8.69187294e-04 0. 0. 0. 0.
      4.34593647e-04 0. 4.34593647e-04 3.04215541e-03 7.38809211e-03
      8.69187294e-04 1.30378094e-03 4.34593647e-04 8.69187294e-04
      8.69187294e-04 1.73837459e-03 3.04215541e-03 9.56106000e-03 0.
      7.38809211e-03 5.21512376e-03 3.47674917e-03 8.69187294e-04
      6.95349835e-03 1.47761842e-02 3.91134294e-03 6.95349835e-03
      1.73837459e-03 9.99565423e-03 1.30378094e-03 5.21512376e-03
      1.30378094e-03 1.82529334e-02 2.60756188e-03 1.73837459e-03
      4.34593647e-04 8.69187294e-04 4.34593670e-03 2.60756188e-03
      2.17296835e-03 1.47761842e-02 1.73837459e-03 8.69187294e-04 0.
      8.69187294e-04 4.34593647e-04 4.34593647e-04 0. 8.69187294e-04
      1.73837459e-03 0. 1.30378094e-03 8.69187294e-04 2.17296835e-03
      8.69187294e-04 3.04215541e-03 1.60799641e-02 0. 4.34593647e-04 0.
      8.69187294e-04 0. 4.34593647e-04 0. 6.95349835e-03 4.34593647e-04
      0. 0. 0. 4.34593647e-04 0. 4.34593647e-04 3.47674917e-03
      4.34593647e-04 8.69187294e-04 0. 4.34593647e-04 0. 8.69187294e-04
      0. 3.04215541e-03 4.34593647e-04 4.34593647e-04 4.34593647e-04
      8.69187294e-04 3.04215541e-03 3.47674917e-03 1.73837459e-03
      1.86875276e-02 5.21512376e-03 1.08648408e-02 0. 2.39026509e-02
      4.34593647e-04 8.69187294e-04 8.69187294e-04 1.34724034e-02
      8.69187294e-04 1.30378094e-03 0. 4.78053000e-03 1.30378094e-03
      1.30378094e-03 8.69187294e-04 1.21686216e-02 1.30378094e-03 0.
      8.69187294e-04 2.60756188e-03 0. 0. 0. 1.30378094e-03
      2.60756188e-03 1.73837459e-03 1.73837459e-03 3.47674917e-03
      1.73837459e-03 1.30378094e-03 1.30378094e-03 1.17340283e-02
      6.51890459e-03 1.60799641e-02 1.30378094e-03 1.39069967e-02
      1.30378094e-03 1.73837459e-03 1.30378094e-03 7.38809211e-03
      8.69187294e-04 2.60756188e-03 0. 2.17296835e-03 1.30378094e-03
      1.30378094e-03 0. 9.99565423e-03 2.47718375e-02 1.12994350e-02
      4.78053000e-03 8.25727917e-03 0. 1.73837459e-03 1.30378094e-03
      9.12646670e-03 6.95349835e-03 4.78053000e-03 1.30378094e-03
      1.08648408e-02 3.47674917e-03 8.25727917e-03 1.34724034e-02
      5.69317676e-02 3.65058668e-02 1.21686216e-02 3.91134294e-03
      6.51890459e-03 1.21686216e-02 2.60756188e-03 1.04302475e-02
      1.04302475e-02 4.34593670e-03 4.34593647e-04 8.69187294e-04
      4.34593647e-04 6.95349835e-03 1.30378094e-03 7.38809211e-03
      2.78139934e-02 1.17340283e-02 2.60756188e-03 1.73837459e-03
      1.30378094e-03 2.17296835e-03 0. 1.73837459e-03 8.69187294e-04
      6.95349835e-03 0. 4.34593647e-04 1.30378094e-03 1.47761842e-02
      1.30378094e-03 1.86875276e-02 9.56106000e-03 4.78053000e-03
      1.73837459e-03 8.69187294e-04 1.30378094e-03 8.69187294e-04
      4.34593647e-04 8.69187294e-04 8.69187294e-04 0. 0. 4.34593647e-04
      0. 8.69187294e-04 0. 8.69187294e-04 2.17296835e-03 7.38809211e-03
      1.30378094e-03 1.30378094e-03 1.30378094e-03 2.60756188e-03 0.
      8.69187294e-04 8.69187294e-04 9.12646670e-03 1.30378094e-03
      2.17296835e-03 8.69187294e-04 3.69404592e-02 4.34593647e-04
      1.12994350e-02 9.12646670e-03 8.69187340e-03 2.60756188e-03
      1.30378094e-03 8.69187294e-04 2.60756188e-03 4.34593647e-04
      8.69187294e-04 2.17296835e-03 3.04215541e-03 0. 4.34593647e-04
      4.34593647e-04 4.34593647e-04 0. 8.69187294e-04 8.69187294e-04
      4.34593647e-04 0. 4.34593647e-04 0. 4.34593647e-04 0. 0.
      4.34593647e-04 8.69187294e-04 0. 4.34593647e-04 0. 2.60756188e-03
      4.34593647e-04 1.30378094e-03 8.69187294e-04 6.51890459e-03
      8.69187294e-04 8.69187294e-04 2.17296835e-03 4.34593647e-04 0.
      4.34593647e-04 8.69187294e-04 4.34593647e-04 0. 0. 0.
      1.30378094e-03 8.69187294e-04 1.30378094e-03 8.69187294e-04
      8.69187340e-03 4.34593647e-04 4.34593647e-04 4.34593647e-04
      1.30378094e-03 0. 4.34593647e-04 1.73837459e-03 2.12950893e-02
      2.17296835e-03 1.73837459e-03 2.60756188e-03 8.69187340e-03
      1.30378094e-03 8.69187340e-03 6.95349835e-03 9.99565423e-03
      1.04302475e-02 0. 1.73837468e-02 1.30378094e-03 1.73837459e-03
      4.34593647e-04 2.86831800e-02 0. 1.30378094e-03 0. 0.
      8.69187294e-04 1.73837459e-03 8.69187294e-04 1.60799641e-02 0.
      8.69187294e-04 0. 1.73837459e-03 8.69187294e-04 0. 0.
      8.69187294e-04 8.69187294e-04 4.34593647e-04 0. 4.34593647e-04 0.
      2.17296835e-03 2.60756188e-03 9.12646670e-03 0. 4.34593647e-04 0.
      8.69187294e-04 0. 4.34593647e-04 0. 4.34593647e-04 0. 0. 0. 0. 0.
      4.34593647e-04 0. 8.69187294e-04 0. 4.34593647e-04 0.
      1.30378094e-03 0. 0. 8.69187294e-04 2.17296835e-03 8.69187294e-04
      1.30378094e-03 0. 2.17296835e-03 2.17296835e-03 2.17296835e-03
      8.69187294e-04 1.26032159e-02 4.34593670e-03 1.73837468e-02
      1.73837459e-03 4.73707058e-02 4.34593647e-04 4.34593647e-04 0.
      2.43372433e-02 8.69187294e-04 2.60756188e-03 0. 3.47674917e-03
      8.69187294e-04 8.69187294e-04 2.60756188e-03 8.69187340e-03
      2.17296835e-03 4.34593647e-04 1.30378094e-03 1.30378094e-03 0. 0.
      4.34593647e-04 0. 1.73837459e-03 8.69187294e-04 8.69187294e-04
      3.04215541e-03 0. 2.17296835e-03 2.17296835e-03 5.21512376e-03
      1.60799641e-02 3.78096476e-02 1.30378094e-03 2.47718375e-02
      8.69187294e-04 2.17296835e-03 1.30378094e-03 1.26032159e-02
      8.69187294e-04 1.30378094e-03 4.34593647e-04 1.30378094e-03
      4.34593647e-04 3.91134294e-03 1.73837459e-03 1.52107775e-02
      1.17340283e-02 2.21642759e-02 1.30378094e-03 9.56106000e-03
      4.34593647e-04 0. 2.17296835e-03 8.25727917e-03 9.12646670e-03
      6.08431082e-03 2.60756188e-03 9.12646670e-03 9.99565423e-03
      5.64971752e-03 1.04302475e-02 4.99782711e-02 3.65058668e-02
      1.12994350e-02 5.21512376e-03 9.99565423e-03 1.47761842e-02
      1.30378094e-03 1.12994350e-02 2.12950893e-02 4.34593670e-03
      1.73837459e-03 2.17296835e-03 4.34593647e-04 8.25727917e-03
      1.73837459e-03 1.34724034e-02 3.12907435e-02 1.21686216e-02
      4.34593670e-03 1.73837459e-03 2.17296835e-03 1.30378094e-03
      4.34593647e-04 5.21512376e-03 8.69187294e-04 8.25727917e-03
      8.69187294e-04 1.30378094e-03 8.69187294e-04 1.43415900e-02
      8.69187294e-04 2.47718375e-02 1.99913085e-02 3.47674917e-03
      2.17296835e-03 4.34593647e-04 8.69187294e-04 8.69187294e-04
      4.34593647e-04 4.34593647e-04 8.69187294e-04 0. 4.34593647e-04 0.
      0. 4.34593647e-04 4.34593647e-04 1.30378094e-03 3.91134294e-03
      8.25727917e-03 1.73837459e-03 8.69187294e-04 2.17296835e-03
      1.30378094e-03 0. 8.69187294e-04 8.69187294e-04 7.38809211e-03 0.
      4.34593647e-04 0. 3.38983051e-02 1.73837459e-03 1.60799641e-02
      1.08648408e-02 6.08431082e-03 4.34593647e-04 4.34593647e-04
      1.73837459e-03 1.73837459e-03 0. 0. 4.34593647e-04 1.30378094e-03
      4.34593647e-04 0. 0. 1.73837459e-03 4.34593647e-04 1.30378094e-03
      0. 8.69187294e-04 0. 0. 0. 4.34593647e-04 0. 0. 0. 3.04215541e-03
      0. 0. 0. 8.69187294e-04 0. 8.69187294e-04 1.73837459e-03
      5.21512376e-03 2.17296835e-03 0. 1.30378094e-03 1.30378094e-03 0.
      8.69187294e-04 8.69187294e-04 8.69187294e-04 0. 4.34593647e-04 0.
      8.69187294e-04 0. 8.69187294e-04 8.69187294e-04 2.12950893e-02
      8.69187294e-04 8.69187294e-04 1.30378094e-03 8.69187294e-04
      4.34593647e-04 8.69187294e-04 1.73837459e-03 2.47718375e-02
      1.30378094e-03 2.17296835e-03 2.60756188e-03 1.43415900e-02
      8.69187294e-04 9.12646670e-03 7.38809211e-03 1.30378094e-03
      4.34593670e-03 1.30378094e-03 8.69187340e-03 0. 4.34593647e-04
      1.30378094e-03 2.12950893e-02 0. 1.73837459e-03 0. 4.34593647e-04
      1.30378094e-03 1.73837459e-03 1.30378094e-03 2.04259008e-02
      1.30378094e-03 1.30378094e-03 0. 8.69187294e-04 8.69187294e-04 0.
      4.34593647e-04 8.69187294e-04 8.69187294e-04 4.34593647e-04 0.
      1.73837459e-03 1.30378094e-03 8.69187294e-04 3.47674917e-03
      1.26032159e-02 0. 0. 0. 8.69187294e-04 0. 0. 0. 2.60756188e-03 0.
      0. 0. 0. 0. 0. 0. 1.73837459e-03 1.30378094e-03 8.69187294e-04 0.
      1.30378094e-03 0. 0. 0. 2.60756188e-03 1.30378094e-03 0.
      4.34593647e-04 1.30378094e-03 1.73837459e-03 8.69187294e-04
      4.34593647e-04 1.34724034e-02 8.25727917e-03 1.08648408e-02 0.
      1.91221200e-02 1.30378094e-03 4.34593647e-04 4.34593647e-04
      6.51890459e-03 0. 8.69187294e-04 0. 2.17296835e-03 0.
      1.73837459e-03 8.69187294e-04 1.47761842e-02 8.69187294e-04
      8.69187294e-04 0. 0. 0. 0. 4.34593647e-04 0. 8.69187294e-04
      1.30378094e-03 4.34593647e-04 8.69187294e-04 2.17296835e-03
      1.30378094e-03 1.73837459e-03 9.12646670e-03 1.17340283e-02
      2.43372433e-02 0. 8.69187340e-03 1.30378094e-03 8.69187294e-04
      8.69187294e-04 7.82268587e-03 4.34593647e-04 4.34593670e-03
      8.69187294e-04 8.69187294e-04 1.73837459e-03 2.17296835e-03
      8.69187294e-04 9.99565423e-03 3.25945243e-02 1.47761842e-02
      2.60756188e-03 9.56106000e-03 4.34593647e-04 4.34593647e-04
      3.04215541e-03 7.82268587e-03 2.60756183e-02 7.38809211e-03
      1.30378094e-03 9.99565423e-03 8.69187340e-03 5.64971752e-03
      2.08604950e-02 5.34550175e-02</_>
    <_>
      4.43285517e-02 5.64971752e-03 4.34593670e-03 6.95349835e-03
      1.82529334e-02 4.34593647e-04 7.82268587e-03 7.38809211e-03
      3.91134294e-03 8.69187294e-04 0. 1.73837459e-03 8.25727917e-03
      8.69187294e-04 9.12646670e-03 9.56106000e-03 1.17340283e-02
      8.69187294e-04 1.30378094e-03 8.69187294e-04 2.17296835e-03 0.
      8.69187294e-04 4.34593647e-04 1.08648408e-02 1.30378094e-03
      2.17296835e-03 1.30378094e-03 2.12950893e-02 1.30378094e-03
      2.21642759e-02 1.04302475e-02 3.47674917e-03 1.73837459e-03
      1.30378094e-03 4.34593647e-04 2.17296835e-03 0. 2.60756188e-03
      2.60756188e-03 4.34593647e-04 4.34593647e-04 0. 4.34593647e-04
      2.17296835e-03 0. 8.69187294e-04 2.17296835e-03 7.38809211e-03
      4.34593647e-04 4.34593647e-04 8.69187294e-04 2.60756188e-03 0.
      1.30378094e-03 8.69187294e-04 1.26032159e-02 8.69187294e-04
      8.69187294e-04 4.34593647e-04 5.91047369e-02 2.60756188e-03
      2.56410260e-02 1.52107775e-02 1.91221200e-02 4.34593647e-04
      2.17296835e-03 4.34593670e-03 3.04215541e-03 0. 2.17296835e-03
      2.17296835e-03 1.73837459e-03 4.34593647e-04 4.34593647e-04
      4.34593647e-04 1.30378094e-03 0. 1.73837459e-03 4.34593647e-04
      1.73837459e-03 4.34593647e-04 8.69187294e-04 0. 4.34593647e-04 0.
      0. 0. 8.69187294e-04 4.34593647e-04 0. 0. 8.69187294e-04 0.
      8.69187294e-04 1.73837459e-03 7.82268587e-03 4.34593647e-04
      1.73837459e-03 4.34593647e-04 1.73837459e-03 0. 1.30378094e-03
      1.73837459e-03 4.34593647e-04 0. 0. 4.34593647e-04 0. 0. 0.
      4.34593647e-04 9.12646670e-03 8.69187294e-04 2.60756188e-03
      1.30378094e-03 4.34593647e-04 0. 4.78053000e-03 3.47674917e-03
      1.95567142e-02 8.69187294e-04 1.73837459e-03 1.30378094e-03
      3.04215550e-02 1.30378094e-03 1.99913085e-02 1.56453717e-02
      4.34593670e-03 3.91134294e-03 4.34593647e-04 6.95349835e-03
      1.73837459e-03 1.73837459e-03 4.34593647e-04 4.78053000e-03
      4.34593647e-04 0. 0. 1.73837459e-03 1.73837459e-03 1.30378094e-03
      8.69187294e-04 6.51890459e-03 1.73837459e-03 0. 0. 1.30378094e-03
      0. 0. 0. 4.34593647e-04 4.34593647e-04 2.17296835e-03 0.
      4.34593647e-04 3.47674917e-03 3.04215541e-03 3.47674917e-03
      8.69187340e-03 0. 8.69187294e-04 4.34593647e-04 1.73837459e-03
      4.34593647e-04 0. 0. 2.17296835e-03 0. 0. 0. 0. 0. 1.73837459e-03
      0. 8.69187294e-04 2.17296835e-03 8.69187294e-04 0. 4.34593647e-04
      4.34593647e-04 1.73837459e-03 0. 1.73837459e-03 0. 1.73837459e-03
      0. 1.73837459e-03 3.91134294e-03 3.04215541e-03 1.30378094e-03
      2.39026509e-02 4.78053000e-03 9.99565423e-03 8.69187294e-04
      1.69491526e-02 1.30378094e-03 1.73837459e-03 1.30378094e-03
      9.12646670e-03 4.34593647e-04 4.34593647e-04 8.69187294e-04
      3.47674917e-03 4.34593647e-04 1.73837459e-03 4.34593647e-04
      6.95349835e-03 8.69187294e-04 1.30378094e-03 0. 8.69187294e-04 0.
      0. 0. 4.34593647e-04 3.04215541e-03 1.73837459e-03 0.
      5.21512376e-03 8.69187294e-04 1.30378094e-03 4.34593647e-04
      1.08648408e-02 2.17296835e-03 9.12646670e-03 8.69187294e-04
      3.91134294e-03 8.69187294e-04 8.69187294e-04 0. 5.64971752e-03
      4.34593647e-04 8.69187294e-04 0. 2.17296835e-03 8.69187294e-04
      8.69187294e-04 1.73837459e-03 7.82268587e-03 8.25727917e-03
      5.21512376e-03 0. 4.78053000e-03 4.34593647e-04 8.69187294e-04
      2.17296835e-03 5.64971752e-03 1.08648408e-02 6.95349835e-03
      3.47674917e-03 1.52107775e-02 9.99565423e-03 8.25727917e-03
      1.26032159e-02 1.16905689e-01 5.64971752e-02 1.17340283e-02
      6.08431082e-03 5.64971752e-03 1.17340283e-02 1.30378094e-03
      7.82268587e-03 1.39069967e-02 6.08431082e-03 1.30378094e-03
